{"learner":{"attributes":{"scikit_learn":"{\"_estimator_type\": \"regressor\"}"},"feature_names":[],"feature_types":[],"gradient_booster":{"model":{"cats":{"enc":[],"feature_segments":[],"sorted_idx":[]},"gbtree_model_param":{"num_parallel_tree":"1","num_trees":"300"},"iteration_indptr":[0,1,2,3,4,5,6,7,8,9,10,11,12,13,14,15,16,17,18,19,20,21,22,23,24,25,26,27,28,29,30,31,32,33,34,35,36,37,38,39,40,41,42,43,44,45,46,47,48,49,50,51,52,53,54,55,56,57,58,59,60,61,62,63,64,65,66,67,68,69,70,71,72,73,74,75,76,77,78,79,80,81,82,83,84,85,86,87,88,89,90,91,92,93,94,95,96,97,98,99,100,101,102,103,104,105,106,107,108,109,110,111,112,113,114,115,116,117,118,119,120,121,122,123,124,125,126,127,128,129,130,131,132,133,134,135,136,137,138,139,140,141,142,143,144,145,146,147,148,149,150,151,152,153,154,155,156,157,158,159,160,161,162,163,164,165,166,167,168,169,170,171,172,173,174,175,176,177,178,179,180,181,182,183,184,185,186,187,188,189,190,191,192,193,194,195,196,197,198,199,200,201,202,203,204,205,206,207,208,209,210,211,212,213,214,215,216,217,218,219,220,221,222,223,224,225,226,227,228,229,230,231,232,233,234,235,236,237,238,239,240,241,242,243,244,245,246,247,248,249,250,251,252,253,254,255,256,257,258,259,260,261,262,263,264,265,266,267,268,269,270,271,272,273,274,275,276,277,278,279,280,281,282,283,284,285,286,287,288,289,290,291,292,293,294,295,296,297,298,299,300],"tree_info":[0,0,0,0,0,0,0,0,0,0,0,0,0,0,0,0,0,0,0,0,0,0,0,0,0,0,0,0,0,0,0,0,0,0,0,0,0,0,0,0,0,0,0,0,0,0,0,0,0,0,0,0,0,0,0,0,0,0,0,0,0,0,0,0,0,0,0,0,0,0,0,0,0,0,0,0,0,0,0,0,0,0,0,0,0,0,0,0,0,0,0,0,0,0,0,0,0,0,0,0,0,0,0,0,0,0,0,0,0,0,0,0,0,0,0,0,0,0,0,0,0,0,0,0,0,0,0,0,0,0,0,0,0,0,0,0,0,0,0,0,0,0,0,0,0,0,0,0,0,0,0,0,0,0,0,0,0,0,0,0,0,0,0,0,0,0,0,0,0,0,0,0,0,0,0,0,0,0,0,0,0,0,0,0,0,0,0,0,0,0,0,0,0,0,0,0,0,0,0,0,0,0,0,0,0,0,0,0,0,0,0,0,0,0,0,0,0,0,0,0,0,0,0,0,0,0,0,0,0,0,0,0,0,0,0,0,0,0,0,0,0,0,0,0,0,0,0,0,0,0,0,0,0,0,0,0,0,0,0,0,0,0,0,0,0,0,0,0,0,0,0,0,0,0,0,0,0,0,0,0,0,0,0,0,0,0,0,0,0,0,0,0,0,0,0,0,0,0,0,0],"trees":[{"base_weights":[5.5555995E-3,-1.5430424E0,1.5574638E0,-2.0914962E0,-7.3148525E-1,8.7425804E-1,2.516629E0,-2.3102157E0,-1.2097225E0,7.745733E-1,-9.9499565E-1,4.6966082E-1,1.378488E0,2.2662115E0,3.2547088E0,4.7322533E-1,-2.3751414E0,-9.0910566E-1,-2.0491261E0,7.902397E-2,6.301369E-1,-1.8694602E0,-7.588293E-1,1.2078143E0,1.6953617E-1,1.0709989E-1,1.217491E0,2.6454163E0,1.8211236E0,6.404109E-1,3.332155E0,3.3424657E-2,-3.6986303E-2,-1.283927E-1,-9.679033E-2,-7.4761316E-2,-2.6350483E-2,-6.724783E-2,-1.17447734E-1,2.7671231E-2,5.5022832E-2,-9.6336655E-2,6.849289E-4,-4.734948E-2,1.112198E-2,3.0251106E-3,6.854652E-2,-8.030822E-2,1.3582817E-2,5.152721E-2,8.4491186E-2,8.141751E-2,1.4001226E-1,6.030583E-2,1.0388128E-1,5.068493E-2,-1.1986303E-2,1.5205479E-1,2.0666252E-1],"categories":[],"categories_nodes":[],"categories_segments":[],"categories_sizes":[],"default_left":[0,0,0,0,0,0,0,0,0,0,0,0,0,0,0,0,0,0,0,0,0,0,0,0,0,0,0,0,0,0,0,0,0,0,0,0,0,0,0,0,0,0,0,0,0,0,0,0,0,0,0,0,0,0,0,0,0,0,0],"id":0,"left_children":[1,3,5,7,9,11,13,15,17,19,21,23,25,27,29,31,33,35,37,-1,39,41,43,45,47,-1,49,51,53,55,57,-1,-1,-1,-1,-1,-1,-1,-1,-1,-1,-1,-1,-1,-1,-1,-1,-1,-1,-1,-1,-1,-1,-1,-1,-1,-1,-1,-1],"loss_changes":[4.4941377E3,4.1508496E2,6.098567E2,1.0482178E2,1.511814E2,1.10946045E2,6.43374E1,8.172388E1,2.6651428E1,5.6390038E0,6.528711E1,6.736434E1,2.726239E1,4.4634766E1,1.7302856E1,3.0998552E0,3.1943115E1,1.8248123E1,2.9635239E0,0E0,1.1949463E0,7.3604736E0,4.7477417E1,1.6385834E1,3.9967316E1,0E0,1.6183685E1,2.0005737E1,1.9263733E1,1.557187E0,9.114868E0,0E0,0E0,0E0,0E0,0E0,0E0,0E0,0E0,0E0,0E0,0E0,0E0,0E0,0E0,0E0,0E0,0E0,0E0,0E0,0E0,0E0,0E0,0E0,0E0,0E0,0E0,0E0,0E0],"parents":[2147483647,0,0,1,1,2,2,3,3,4,4,5,5,6,6,7,7,8,8,9,9,10,10,11,11,12,12,13,13,14,14,15,15,16,16,17,17,18,18,20,20,21,21,22,22,23,23,24,24,26,26,27,27,28,28,29,29,30,30],"right_children":[2,4,6,8,10,12,14,16,18,20,22,24,26,28,30,32,34,36,38,-1,40,42,44,46,48,-1,50,52,54,56,58,-1,-1,-1,-1,-1,-1,-1,-1,-1,-1,-1,-1,-1,-1,-1,-1,-1,-1,-1,-1,-1,-1,-1,-1,-1,-1,-1,-1],"split_conditions":[9.1810286E-2,3.1762492E-2,2.3105288E-2,4.1688194E1,2.1541273E1,2.2515436E-1,1.23369776E-1,2.0649305E1,2.2341919E-1,1.1531067E-1,1.2571648E-3,1.2785721E-1,1.1052704E-1,2.4255539E1,1.3247739E-1,1.9011307E-1,3.2242797E-3,4.438527E1,3.083436E1,7.902397E-2,2.3669431E-2,8.7424226E-2,4.986948E1,1.5892907E-3,4.8069624E-4,1.0709989E-1,4.4803283E-1,1.2334914E1,1.4938034E1,1.3928604E-1,4.896945E1,3.3424657E-2,-3.6986303E-2,-1.283927E-1,-9.679033E-2,-7.4761316E-2,-2.6350483E-2,-6.724783E-2,-1.17447734E-1,2.7671231E-2,5.5022832E-2,-9.6336655E-2,6.849289E-4,-4.734948E-2,1.112198E-2,3.0251106E-3,6.854652E-2,-8.030822E-2,1.3582817E-2,5.152721E-2,8.4491186E-2,8.141751E-2,1.4001226E-1,6.030583E-2,1.0388128E-1,5.068493E-2,-1.1986303E-2,1.5205479E-1,2.0666252E-1],"split_indices":[3,3,4,5,6,3,4,6,1,1,4,1,1,6,3,1,4,5,6,0,4,3,5,4,4,0,3,8,8,1,5,0,0,0,0,0,0,0,0,0,0,0,0,0,0,0,0,0,0,0,0,0,0,0,0,0,0,0,0],"split_type":[0,0,0,0,0,0,0,0,0,0,0,0,0,0,0,0,0,0,0,0,0,0,0,0,0,0,0,0,0,0,0,0,0,0,0,0,0,0,0,0,0,0,0,0,0,0,0,0,0,0,0,0,0,0,0,0,0,0,0],"sum_hessian":[1.868E3,9.35E2,9.33E2,5.57E2,3.78E2,5.46E2,3.87E2,4.45E2,1.12E2,5.6E1,3.22E2,3.04E2,2.42E2,2.92E2,9.5E1,1E1,4.35E2,8.4E1,2.8E1,7E0,4.9E1,6.7E1,2.55E2,8.7E1,2.17E2,4E1,2.02E2,1.55E2,1.37E2,3E0,9.2E1,9E0,1E0,2.99E2,1.36E2,3.2E1,5.2E1,1E1,1.8E1,4.4E1,5E0,6.5E1,2E0,2.14E2,4.1E1,1.1E1,7.6E1,1.1E1,2.06E2,1.47E2,5.5E1,2.2E1,1.33E2,4.2E1,9.5E1,2E0,1E0,7.1E1,2.1E1],"tree_param":{"num_deleted":"0","num_feature":"10","num_nodes":"59","size_leaf_vector":"1"}},{"base_weights":[5.785386E-3,-1.486637E0,1.4538879E0,-2.200295E0,-9.0543854E-1,1.9470145E0,4.877479E-1,-2.3770413E0,-1.1698966E0,7.5160295E-1,-1.1174719E0,1.3938271E0,2.2554688E0,1.1742263E0,1.2257243E-1,-2.1769924E0,-2.860225E0,-8.117343E-1,-1.9377514E0,1.3616303E0,5.451144E-1,-1.3370849E0,-3.475469E-1,2.569932E0,1.0872269E0,-9.815442E-1,2.3242097E0,8.897188E-1,1.5872328E0,3.6090183E-1,-2.538552E-1,3.290411E-2,-1.10120356E-1,-1.4376512E-1,-3.4566548E-2,-6.5552235E-2,-2.6751066E-2,-6.052304E-2,-1.09015584E-1,7.1422875E-2,1.2321914E-2,2.8451443E-2,-1.2678087E-2,-8.9714594E-2,-5.6917947E-2,-9.175273E-3,-1.0020129E-1,1.3942316E-1,4.7702502E-2,7.276981E-2,4.26397E-2,-4.954028E-4,-8.7843575E-2,1.3913268E-1,9.718931E-2,2.5954893E-2,6.2253606E-2,5.5821545E-2,8.961268E-2,8.704375E-3,5.3009864E-2,-2.2190448E-3,-8.00941E-2],"categories":[],"categories_nodes":[],"categories_segments":[],"categories_sizes":[],"default_left":[0,0,0,0,0,0,0,0,0,0,0,0,0,0,0,0,0,0,0,0,0,0,0,0,0,0,0,0,0,0,0,0,0,0,0,0,0,0,0,0,0,0,0,0,0,0,0,0,0,0,0,0,0,0,0,0,0,0,0,0,0,0,0],"id":1,"left_children":[1,3,5,7,9,11,13,15,17,19,21,23,25,27,29,31,33,35,37,39,41,43,45,47,49,51,53,55,57,59,61,-1,-1,-1,-1,-1,-1,-1,-1,-1,-1,-1,-1,-1,-1,-1,-1,-1,-1,-1,-1,-1,-1,-1,-1,-1,-1,-1,-1,-1,-1,-1,-1],"loss_changes":[4.0154739E3,3.775288E2,4.4832324E2,7.188794E1,1.7862198E2,1.033313E2,8.007532E1,2.750769E1,1.5478096E1,6.563648E0,7.545471E1,7.8700165E1,9.106494E1,1.1630676E1,1.8931509E1,1.9534424E1,1.2496338E0,5.3778515E0,7.126465E-1,6.9132614E-1,1.0037804E0,2.9667175E1,2.70771E1,1.3583221E1,1.4381134E1,6.762618E0,6.278247E1,8.309376E0,2.246132E0,1.6667788E1,2.3083818E1,0E0,0E0,0E0,0E0,0E0,0E0,0E0,0E0,0E0,0E0,0E0,0E0,0E0,0E0,0E0,0E0,0E0,0E0,0E0,0E0,0E0,0E0,0E0,0E0,0E0,0E0,0E0,0E0,0E0,0E0,0E0,0E0],"parents":[2147483647,0,0,1,1,2,2,3,3,4,4,5,5,6,6,7,7,8,8,9,9,10,10,11,11,12,12,13,13,14,14,15,15,16,16,17,17,18,18,19,19,20,20,21,21,22,22,23,23,24,24,25,25,26,26,27,27,28,28,29,29,30,30],"right_children":[2,4,6,8,10,12,14,16,18,20,22,24,26,28,30,32,34,36,38,40,42,44,46,48,50,52,54,56,58,60,62,-1,-1,-1,-1,-1,-1,-1,-1,-1,-1,-1,-1,-1,-1,-1,-1,-1,-1,-1,-1,-1,-1,-1,-1,-1,-1,-1,-1,-1,-1,-1,-1],"split_conditions":[8.7424226E-2,2.0276263E-2,5.213138E-1,4.173096E1,2.1458271E1,1.4121477E1,1.3166428E-1,2.3672867E-1,2.2453308E-1,1.711945E1,4.594587E1,1.02573395E-1,1.1926196E-1,4.9972477E0,1.5972137E-1,1.6138667E-1,3.780629E0,4.3627834E1,3.083436E1,1.8385255E-1,1.2244216E1,6.498878E-1,2.2283936E-1,2.4255539E1,1.2427521E-1,1.459198E-1,2.4158234E1,4.7557606E1,1.5009048E1,5.2804863E1,1.6937801E1,3.290411E-2,-1.10120356E-1,-1.4376512E-1,-3.4566548E-2,-6.5552235E-2,-2.6751066E-2,-6.052304E-2,-1.09015584E-1,7.1422875E-2,1.2321914E-2,2.8451443E-2,-1.2678087E-2,-8.9714594E-2,-5.6917947E-2,-9.175273E-3,-1.0020129E-1,1.3942316E-1,4.7702502E-2,7.276981E-2,4.26397E-2,-4.954028E-4,-8.7843575E-2,1.3913268E-1,9.718931E-2,2.5954893E-2,6.2253606E-2,5.5821545E-2,8.961268E-2,8.704375E-3,5.3009864E-2,-2.2190448E-3,-8.00941E-2],"split_indices":[3,3,2,5,6,8,1,1,1,6,5,1,3,7,1,2,7,5,6,2,8,2,1,6,1,1,6,5,8,5,8,0,0,0,0,0,0,0,0,0,0,0,0,0,0,0,0,0,0,0,0,0,0,0,0,0,0,0,0,0,0,0,0],"split_type":[0,0,0,0,0,0,0,0,0,0,0,0,0,0,0,0,0,0,0,0,0,0,0,0,0,0,0,0,0,0,0,0,0,0,0,0,0,0,0,0,0,0,0,0,0,0,0,0,0,0,0,0,0,0,0,0,0,0,0,0,0,0,0],"sum_hessian":[1.856E3,9.14E2,9.42E2,4.09E2,5.05E2,6.23E2,3.19E2,3.48E2,6.1E1,5.7E1,4.48E2,2.25E2,3.98E2,1.1E2,2.09E2,2.5E2,9.8E1,4.3E1,1.8E1,1.3E1,4.4E1,3.48E2,1E2,4.5E1,1.8E2,8E0,3.9E2,6.7E1,4.3E1,1.28E2,8.1E1,2E0,2.48E2,9.7E1,1E0,1.4E1,2.9E1,6E0,1.2E1,1.2E1,1E0,4.3E1,1E0,1.03E2,2.45E2,9.2E1,8E0,3.9E1,6E0,6.8E1,1.12E2,4E0,4E0,1.74E2,2.16E2,3.4E1,3.3E1,1.5E1,2.8E1,1.02E2,2.6E1,7.1E1,1E1],"tree_param":{"num_deleted":"0","num_feature":"10","num_nodes":"63","size_leaf_vector":"1"}},{"base_weights":[-6.5352037E-3,-1.4014454E0,1.5783762E0,-2.0333812E0,-8.05598E-1,1.1837974E0,2.5241125E0,-2.2934155E0,-1.3370062E0,-1.0988063E0,-6.494681E-2,7.171641E-1,1.463855E0,2.110413E0,2.9545605E0,-2.4574459E0,-1.349523E0,-1.6030122E0,-9.52123E-1,-1.2102427E0,-5.916522E-2,-7.8685915E-1,1.1609116E-1,4.8392475E-1,1.1020774E0,1.2303201E0,2.130108E0,1.4799156E0,2.3782206E0,3.1391773E0,1.11462764E-1,-1.3878018E-1,-1.1199381E-1,-8.3495975E-2,-2.864028E-2,-8.1690654E-2,1.7676318E-2,-9.1266595E-2,-3.3624515E-2,-8.358315E-2,-4.9784336E-2,7.6731243E-3,-3.136718E-2,-4.993653E-2,2.1493498E-2,-5.24846E-2,9.4611E-3,-5.1013636E-3,2.9199068E-2,2.67209E-2,6.5041766E-2,5.7162177E-2,9.632789E-2,5.0482985E-2,1.1236449E-1,7.819749E-2,1.4530206E-2,1.3306352E-1,9.000472E-2,1.4744247E-1,1.9138944E-1],"categories":[],"categories_nodes":[],"categories_segments":[],"categories_sizes":[],"default_left":[0,0,0,0,0,0,0,0,0,0,0,0,0,0,0,0,0,0,0,0,0,0,0,0,0,0,0,0,0,0,0,0,0,0,0,0,0,0,0,0,0,0,0,0,0,0,0,0,0,0,0,0,0,0,0,0,0,0,0,0,0],"id":2,"left_children":[1,3,5,7,9,11,13,15,17,19,21,23,25,27,29,31,33,35,37,39,41,43,45,47,49,51,53,55,57,59,-1,-1,-1,-1,-1,-1,-1,-1,-1,-1,-1,-1,-1,-1,-1,-1,-1,-1,-1,-1,-1,-1,-1,-1,-1,-1,-1,-1,-1,-1,-1],"loss_changes":[4.0568357E3,3.6586243E2,3.1756274E2,8.258508E1,1.0937982E2,7.840619E1,3.863965E1,4.978943E1,1.1885681E1,4.1751648E1,1.8911219E1,2.0115372E1,5.6349243E1,1.876892E1,9.204346E0,1.3926514E1,1.223291E1,5.1575775E0,1.244643E1,3.060968E1,4.44545E0,7.905237E0,1.0088169E1,8.560696E0,9.007912E0,1.4954651E1,1.0466736E1,3.7431107E0,1.0100586E1,1.0322876E0,0E0,0E0,0E0,0E0,0E0,0E0,0E0,0E0,0E0,0E0,0E0,0E0,0E0,0E0,0E0,0E0,0E0,0E0,0E0,0E0,0E0,0E0,0E0,0E0,0E0,0E0,0E0,0E0,0E0,0E0,0E0],"parents":[2147483647,0,0,1,1,2,2,3,3,4,4,5,5,6,6,7,7,8,8,9,9,10,10,11,11,12,12,13,13,14,14,15,15,16,16,17,17,18,18,19,19,20,20,21,21,22,22,23,23,24,24,25,25,26,26,27,27,28,28,29,29],"right_children":[2,4,6,8,10,12,14,16,18,20,22,24,26,28,30,32,34,36,38,40,42,44,46,48,50,52,54,56,58,60,-1,-1,-1,-1,-1,-1,-1,-1,-1,-1,-1,-1,-1,-1,-1,-1,-1,-1,-1,-1,-1,-1,-1,-1,-1,-1,-1,-1,-1,-1,-1],"split_conditions":[-8.251202E0,2.6311949E-2,-2.5515206E0,3.9745857E1,3.0323162E1,-6.3970313E0,-3.3705166E-1,-1.0636072E1,4.398752E1,4.62178E0,-1.1160369E1,4.797733E0,5.2831483E0,1.3926821E1,5.3819275E-1,3.4877953E1,-9.940805E0,4.031402E0,-1.2542902E1,6.308773E-1,1.8224895E1,5.0453545E1,3.2298007E0,-7.895769E0,1.41685095E1,5.383747E1,1.2948526E1,2.4653673E1,4.9015874E-1,4.79549E1,1.11462764E-1,-1.3878018E-1,-1.1199381E-1,-8.3495975E-2,-2.864028E-2,-8.1690654E-2,1.7676318E-2,-9.1266595E-2,-3.3624515E-2,-8.358315E-2,-4.9784336E-2,7.6731243E-3,-3.136718E-2,-4.993653E-2,2.1493498E-2,-5.24846E-2,9.4611E-3,-5.1013636E-3,2.9199068E-2,2.67209E-2,6.5041766E-2,5.7162177E-2,9.632789E-2,5.0482985E-2,1.1236449E-1,7.819749E-2,1.4530206E-2,1.3306352E-1,9.000472E-2,1.4744247E-1,1.9138944E-1],"split_indices":[0,3,0,5,6,0,0,0,5,7,0,7,7,8,3,5,0,7,0,2,8,5,7,0,8,5,8,6,3,5,0,0,0,0,0,0,0,0,0,0,0,0,0,0,0,0,0,0,0,0,0,0,0,0,0,0,0,0,0,0,0],"split_type":[0,0,0,0,0,0,0,0,0,0,0,0,0,0,0,0,0,0,0,0,0,0,0,0,0,0,0,0,0,0,0,0,0,0,0,0,0,0,0,0,0,0,0,0,0,0,0,0,0,0,0,0,0,0,0,0,0,0,0,0,0],"sum_hessian":[1.833E3,9.75E2,8.58E2,4.72E2,5.03E2,6.07E2,2.51E2,3.42E2,1.3E2,3.6E2,1.43E2,2.29E2,3.78E2,1.31E2,1.2E2,2.9E2,5.2E1,7.5E1,5.5E1,3.25E2,3.5E1,2.8E1,1.15E2,1.44E2,8.5E1,2.82E2,9.6E1,4.1E1,9E1,9.3E1,2.7E1,1.13E2,1.77E2,3.6E1,1.6E1,7.4E1,1E0,1.2E1,4.3E1,1.01E2,2.24E2,2.6E1,9E0,2.4E1,4E0,6E0,1.09E2,2.1E1,1.23E2,2.3E1,6.2E1,2.53E2,2.9E1,1E1,8.6E1,3.8E1,3E0,5.8E1,3.2E1,7.7E1,1.6E1],"tree_param":{"num_deleted":"0","num_feature":"10","num_nodes":"61","size_leaf_vector":"1"}},{"base_weights":[2.4475297E-3,-1.3003918E0,1.4613913E0,-1.6566576E0,-5.0206906E-1,1.0050347E0,2.2444296E0,-2.106102E0,-1.0051436E0,-9.0611684E-1,-1.72623E-1,6.8541616E-1,1.4005696E0,2.1055675E0,1.6398267E-1,-2.3027277E0,-1.5167656E0,-1.6734834E0,-7.7450705E-1,-9.382062E-2,-8.080726E-1,-1.0045435E0,-5.0272826E-2,5.04474E-1,9.390303E-1,1.1038767E0,1.7796814E0,1.8286376E0,2.5959666E0,-1.2836184E-1,-1.0275135E-1,-7.8059636E-2,-2.341211E-4,-8.785481E-2,9.360424E-3,-4.298269E-2,2.2456646E-3,-5.3189117E-2,-1.0945833E-2,-6.416215E-2,-2.3735722E-3,-1.7574698E-2,6.806092E-3,2.688457E-2,-5.7067078E-2,2.9556608E-2,5.8169186E-2,4.932975E-2,7.9910465E-2,8.165642E-2,1.19396284E-1,7.702462E-2,1.1346785E-1,1.3140665E-1,5.7140898E-2],"categories":[],"categories_nodes":[],"categories_segments":[],"categories_sizes":[],"default_left":[0,0,0,0,0,0,0,0,0,0,0,0,0,0,0,0,0,0,0,0,0,0,0,0,0,0,0,0,0,0,0,0,0,0,0,0,0,0,0,0,0,0,0,0,0,0,0,0,0,0,0,0,0,0,0],"id":3,"left_children":[1,3,5,7,9,11,13,15,17,19,21,23,25,27,-1,29,31,33,35,-1,37,39,41,43,45,47,49,51,53,-1,-1,-1,-1,-1,-1,-1,-1,-1,-1,-1,-1,-1,-1,-1,-1,-1,-1,-1,-1,-1,-1,-1,-1,-1,-1],"loss_changes":[3.5981562E3,2.8358337E2,3.1685303E2,2.0022095E2,4.1108284E1,7.059393E1,4.0245605E1,4.378589E1,4.248065E1,1.17070465E1,1.7456625E1,1.3981476E1,2.638031E1,3.4908325E1,0E0,1.464209E1,7.046341E0,1.1530533E1,1.4899818E1,0E0,1.9050682E1,5.8072605E0,8.525895E0,1.0782265E1,9.459068E0,6.7717743E0,5.816498E0,2.0632385E1,1.8109131E0,0E0,0E0,0E0,0E0,0E0,0E0,0E0,0E0,0E0,0E0,0E0,0E0,0E0,0E0,0E0,0E0,0E0,0E0,0E0,0E0,0E0,0E0,0E0,0E0,0E0,0E0],"parents":[2147483647,0,0,1,1,2,2,3,3,4,4,5,5,6,6,7,7,8,8,9,9,10,10,11,11,12,12,13,13,15,15,16,16,17,17,18,18,20,20,21,21,22,22,23,23,24,24,25,25,26,26,27,27,28,28],"right_children":[2,4,6,8,10,12,14,16,18,20,22,24,26,28,-1,30,32,34,36,-1,38,40,42,44,46,48,50,52,54,-1,-1,-1,-1,-1,-1,-1,-1,-1,-1,-1,-1,-1,-1,-1,-1,-1,-1,-1,-1,-1,-1,-1,-1,-1,-1],"split_conditions":[-8.251202E0,4.3375866E1,3.140651E-2,-1.0636072E1,3.2671264E-3,-5.5827875E0,1.9828724E1,3.951041E1,1.1547122E-3,6.5113455E-1,2.8721193E1,7.736503E-3,1.5009048E1,-3.3705166E-1,1.6398267E-1,3.5352512E1,4.119083E0,4.219283E0,4.338063E0,-9.382062E-2,4.0805054E0,7.137076E-3,4.8298344E1,2.0814823E1,1.4198927E1,-1.8791767E0,-1.6882125E0,1.6489677E1,2.6138823E1,-1.2836184E-1,-1.0275135E-1,-7.8059636E-2,-2.341211E-4,-8.785481E-2,9.360424E-3,-4.298269E-2,2.2456646E-3,-5.3189117E-2,-1.0945833E-2,-6.416215E-2,-2.3735722E-3,-1.7574698E-2,6.806092E-3,2.688457E-2,-5.7067078E-2,2.9556608E-2,5.8169186E-2,4.932975E-2,7.9910465E-2,8.165642E-2,1.19396284E-1,7.702462E-2,1.1346785E-1,1.3140665E-1,5.7140898E-2],"split_indices":[0,5,4,0,4,0,8,5,4,2,6,4,8,0,0,5,7,7,7,0,7,4,5,8,8,0,0,8,6,0,0,0,0,0,0,0,0,0,0,0,0,0,0,0,0,0,0,0,0,0,0,0,0,0,0],"split_type":[0,0,0,0,0,0,0,0,0,0,0,0,0,0,0,0,0,0,0,0,0,0,0,0,0,0,0,0,0,0,0,0,0,0,0,0,0,0,0,0,0,0,0,0,0,0,0,0,0,0,0,0,0,0,0],"sum_hessian":[1.891E3,9.99E2,8.92E2,6.9E2,3.09E2,5.65E2,3.27E2,4.07E2,2.83E2,1.38E2,1.71E2,3.14E2,2.51E2,2.91E2,3.6E1,3.03E2,1.04E2,7.1E1,2.12E2,1.1E1,1.27E2,2.1E1,1.5E2,1.85E2,1.29E2,1.43E2,1.08E2,1.89E2,1.02E2,1.42E2,1.61E2,1.01E2,3E0,6.8E1,3E0,1.92E2,2E1,8.8E1,3.9E1,1.6E1,5E0,5.7E1,9.3E1,1.82E2,3E0,5.2E1,7.7E1,1.18E2,2.5E1,9E1,1.8E1,1.17E2,7.2E1,9.9E1,3E0],"tree_param":{"num_deleted":"0","num_feature":"10","num_nodes":"55","size_leaf_vector":"1"}},{"base_weights":[-2.918256E-2,-1.2582997E0,1.4188915E0,-1.7968515E0,-7.432651E-1,9.5537215E-1,2.1375382E0,-2.0005276E0,-1.0924172E0,-1.2755249E0,-4.396262E-1,1.5371644E0,7.8063035E-1,1.7992548E0,2.576088E0,-2.1286628E0,-1.1649582E0,-7.663834E-1,-1.741395E0,-1.8307506E0,-9.9442625E-1,-3.1725842E-1,-1.3249795E0,2.2920833E0,1.3903129E0,5.5527705E-1,1.1222321E0,1.4592271E0,2.172184E0,2.8073175E0,1.9267232E0,-1.259545E-1,-9.676339E-2,-8.3850265E-2,-4.0190417E-2,-5.9409834E-2,-1.835152E-2,-4.472932E-2,-9.545821E-2,-4.046144E-2,-9.835508E-2,2.2747068E-2,-5.287778E-2,-5.9277732E-2,-8.76462E-3,-1.03049636E-1,-4.2469796E-2,6.827764E-2,1.2716994E-1,-6.574893E-3,7.1087494E-2,3.40241E-2,1.0530886E-2,4.495398E-2,7.603016E-2,5.4368164E-2,8.284276E-2,8.216681E-2,1.1595576E-1,1.3195896E-1,1.6907698E-1,1.0647448E-1,6.296236E-2],"categories":[],"categories_nodes":[],"categories_segments":[],"categories_sizes":[],"default_left":[0,0,0,0,0,0,0,0,0,0,0,0,0,0,0,0,0,0,0,0,0,0,0,0,0,0,0,0,0,0,0,0,0,0,0,0,0,0,0,0,0,0,0,0,0,0,0,0,0,0,0,0,0,0,0,0,0,0,0,0,0,0,0],"id":4,"left_children":[1,3,5,7,9,11,13,15,17,19,21,23,25,27,29,31,33,35,37,39,41,43,45,47,49,51,53,55,57,59,61,-1,-1,-1,-1,-1,-1,-1,-1,-1,-1,-1,-1,-1,-1,-1,-1,-1,-1,-1,-1,-1,-1,-1,-1,-1,-1,-1,-1,-1,-1,-1,-1],"loss_changes":[3.33011E3,2.7936572E2,2.8409644E2,6.869202E1,8.331732E1,5.2071655E1,4.5211792E1,3.841931E1,2.2574951E1,2.752121E1,3.5548096E1,1.0116608E1,3.0554214E1,2.1303894E1,1.6213074E1,2.0042114E1,8.453079E0,1.2534729E1,3.5486221E0,7.0438538E0,1.2101326E1,3.5909866E1,1.2250832E1,7.181854E-1,5.114563E0,1.0472336E1,1.2856461E1,5.8414307E0,3.1822815E0,1.1166382E0,2.8674622E0,0E0,0E0,0E0,0E0,0E0,0E0,0E0,0E0,0E0,0E0,0E0,0E0,0E0,0E0,0E0,0E0,0E0,0E0,0E0,0E0,0E0,0E0,0E0,0E0,0E0,0E0,0E0,0E0,0E0,0E0,0E0,0E0],"parents":[2147483647,0,0,1,1,2,2,3,3,4,4,5,5,6,6,7,7,8,8,9,9,10,10,11,11,12,12,13,13,14,14,15,15,16,16,17,17,18,18,19,19,20,20,21,21,22,22,23,23,24,24,25,25,26,26,27,27,28,28,29,29,30,30],"right_children":[2,4,6,8,10,12,14,16,18,20,22,24,26,28,30,32,34,36,38,40,42,44,46,48,50,52,54,56,58,60,62,-1,-1,-1,-1,-1,-1,-1,-1,-1,-1,-1,-1,-1,-1,-1,-1,-1,-1,-1,-1,-1,-1,-1,-1,-1,-1,-1,-1,-1,-1,-1,-1],"split_conditions":[-8.106911E0,2.723449E-2,2.7440604E-2,8.070228E-1,2.679409E1,1.1603165E-1,-1.0360523E0,-1.06033125E1,2.1957779E-1,1.9203287E-3,2.1762466E-1,9.616089E-2,-5.5827875E0,1.6597557E1,5.2171904E-1,6.4663166E-1,2.961772E-3,8.4026694E-1,2.9024635E1,1.3767242E-1,1.3166428E-1,7.595374E-4,-1.1361609E1,1.3839665E1,6.258163E-4,1.5924454E-1,1.5114966E1,1.4088105E1,5.097466E0,1.2758255E-1,9.187003E-2,-1.259545E-1,-9.676339E-2,-8.3850265E-2,-4.0190417E-2,-5.9409834E-2,-1.835152E-2,-4.472932E-2,-9.545821E-2,-4.046144E-2,-9.835508E-2,2.2747068E-2,-5.287778E-2,-5.9277732E-2,-8.76462E-3,-1.03049636E-1,-4.2469796E-2,6.827764E-2,1.2716994E-1,-6.574893E-3,7.1087494E-2,3.40241E-2,1.0530886E-2,4.495398E-2,7.603016E-2,5.4368164E-2,8.284276E-2,8.216681E-2,1.1595576E-1,1.3195896E-1,1.6907698E-1,1.0647448E-1,6.296236E-2],"split_indices":[0,3,4,2,6,1,0,0,1,4,1,1,0,8,3,2,4,2,6,1,1,4,0,8,4,1,8,8,7,1,2,0,0,0,0,0,0,0,0,0,0,0,0,0,0,0,0,0,0,0,0,0,0,0,0,0,0,0,0,0,0,0,0],"split_type":[0,0,0,0,0,0,0,0,0,0,0,0,0,0,0,0,0,0,0,0,0,0,0,0,0,0,0,0,0,0,0,0,0,0,0,0,0,0,0,0,0,0,0,0,0,0,0,0,0,0,0,0,0,0,0,0,0,0,0,0,0,0,0],"sum_hessian":[1.869E3,1.011E3,8.58E2,4.93E2,5.18E2,5.23E2,3.35E2,3.81E2,1.12E2,1.87E2,3.31E2,1.19E2,4.04E2,1.92E2,1.43E2,3.29E2,5.2E1,7.6E1,3.6E1,6.1E1,1.26E2,2.92E2,3.9E1,1.7E1,1.02E2,2.45E2,1.59E2,1.03E2,8.9E1,1.03E2,4E1,1.05E2,2.24E2,2E1,3.2E1,3.6E1,4E1,7E0,2.9E1,8E0,5.3E1,5E0,1.21E2,4E1,2.52E2,1.4E1,2.5E1,5E0,1.2E1,2E0,1E2,1.79E2,6.6E1,1.04E2,5.5E1,3.8E1,6.5E1,2.2E1,6.7E1,8.4E1,1.9E1,2.9E1,1.1E1],"tree_param":{"num_deleted":"0","num_feature":"10","num_nodes":"63","size_leaf_vector":"1"}},{"base_weights":[-2.301947E-2,-1.2014805E0,1.3478421E0,-1.7066607E0,-6.998667E-1,8.612389E-1,1.9690597E0,-1.9783584E0,-1.1050515E0,-8.9313656E-1,8.129858E-3,6.648303E-1,1.3616751E0,1.6819019E0,2.4803333E0,-2.0564656E0,-5.1763463E-1,-8.770947E-1,-1.6344563E0,-1.0054368E0,9.6049294E-2,-1.4053904E0,8.806375E-2,1.0860035E0,4.794828E-1,2.0849524E0,1.235809E0,1.5880442E0,2.5351112E0,2.7212017E0,1.9148545E0,-1.15223266E-1,-9.018031E-2,-4.1370265E-2,6.5800785E-3,-6.578284E-2,-2.6910314E-2,-9.75309E-2,-5.5505347E-2,-7.797029E-2,-4.2389974E-2,-6.407237E-3,3.030159E-2,-9.869516E-3,-8.037562E-2,-8.434333E-2,7.8069046E-3,6.1954944E-3,5.7069123E-2,-8.280087E-3,2.826347E-2,1.0696596E-1,2.7658803E-2,3.9067663E-2,6.7358896E-2,4.631434E-2,8.382505E-2,2.4631644E-2,1.3027793E-1,1.2523626E-1,1.7420182E-1,9.9850215E-2,5.9767395E-2],"categories":[],"categories_nodes":[],"categories_segments":[],"categories_sizes":[],"default_left":[0,0,0,0,0,0,0,0,0,0,0,0,0,0,0,0,0,0,0,0,0,0,0,0,0,0,0,0,0,0,0,0,0,0,0,0,0,0,0,0,0,0,0,0,0,0,0,0,0,0,0,0,0,0,0,0,0,0,0,0,0,0,0],"id":5,"left_children":[1,3,5,7,9,11,13,15,17,19,21,23,25,27,29,31,33,35,37,39,41,43,45,47,49,51,53,55,57,59,61,-1,-1,-1,-1,-1,-1,-1,-1,-1,-1,-1,-1,-1,-1,-1,-1,-1,-1,-1,-1,-1,-1,-1,-1,-1,-1,-1,-1,-1,-1,-1,-1],"loss_changes":[3.0613894E3,2.5702576E2,2.6310718E2,8.068579E1,7.020328E1,4.7551666E1,5.220569E1,3.8639893E1,1.7875458E1,4.4864166E1,1.2665451E1,2.7269852E1,9.986374E0,1.5914124E1,1.3313293E1,1.653772E1,3.9300604E0,1.6234993E1,5.626236E0,3.0290009E1,4.8797307E0,1.1476727E0,1.3071068E1,5.612793E0,1.3873165E1,3.988495E-1,5.0208435E0,1.1734924E1,2.0258026E0,6.6311035E0,2.1360779E-1,0E0,0E0,0E0,0E0,0E0,0E0,0E0,0E0,0E0,0E0,0E0,0E0,0E0,0E0,0E0,0E0,0E0,0E0,0E0,0E0,0E0,0E0,0E0,0E0,0E0,0E0,0E0,0E0,0E0,0E0,0E0,0E0],"parents":[2147483647,0,0,1,1,2,2,3,3,4,4,5,5,6,6,7,7,8,8,9,9,10,10,11,11,12,12,13,13,14,14,15,15,16,16,17,17,18,18,19,19,20,20,21,21,22,22,23,23,24,24,25,25,26,26,27,27,28,28,29,29,30,30],"right_children":[2,4,6,8,10,12,14,16,18,20,22,24,26,28,30,32,34,36,38,40,42,44,46,48,50,52,54,56,58,60,62,-1,-1,-1,-1,-1,-1,-1,-1,-1,-1,-1,-1,-1,-1,-1,-1,-1,-1,-1,-1,-1,-1,-1,-1,-1,-1,-1,-1,-1,-1,-1,-1],"split_conditions":[-8.251202E0,2.6311949E-2,2.3105288E-2,3.951041E1,4.896945E1,-4.4868383E0,-7.577394E-1,-9.977738E0,2.2453308E-1,4.62178E0,6.7251235E-1,1.23867035E-1,1.02573395E-1,5.232163E1,5.2171904E-1,3.5352512E1,-9.425939E0,4.2489002E1,-1.19313965E1,6.136342E-1,5.4032545E0,8.7424226E-2,3.2298007E0,1.5892907E-3,-7.825578E0,4.446717E1,5.2898084E-3,1.4503692E-1,-6.3206983E0,4.79549E1,4.62178E0,-1.15223266E-1,-9.018031E-2,-4.1370265E-2,6.5800785E-3,-6.578284E-2,-2.6910314E-2,-9.75309E-2,-5.5505347E-2,-7.797029E-2,-4.2389974E-2,-6.407237E-3,3.030159E-2,-9.869516E-3,-8.037562E-2,-8.434333E-2,7.8069046E-3,6.1954944E-3,5.7069123E-2,-8.280087E-3,2.826347E-2,1.0696596E-1,2.7658803E-2,3.9067663E-2,6.7358896E-2,4.631434E-2,8.382505E-2,2.4631644E-2,1.3027793E-1,1.2523626E-1,1.7420182E-1,9.9850215E-2,5.9767395E-2],"split_indices":[0,3,4,5,5,0,0,0,1,7,2,1,1,5,3,5,0,5,0,2,7,3,7,4,0,5,4,3,0,5,7,0,0,0,0,0,0,0,0,0,0,0,0,0,0,0,0,0,0,0,0,0,0,0,0,0,0,0,0,0,0,0,0],"split_type":[0,0,0,0,0,0,0,0,0,0,0,0,0,0,0,0,0,0,0,0,0,0,0,0,0,0,0,0,0,0,0,0,0,0,0,0,0,0,0,0,0,0,0,0,0,0,0,0,0,0,0,0,0,0,0,0,0,0,0,0,0,0,0],"sum_hessian":[1.893E3,1.018E3,8.75E2,5.06E2,5.12E2,4.92E2,3.83E2,3.47E2,1.59E2,4.02E2,1.1E2,3.55E2,1.37E2,2.48E2,1.35E2,3.29E2,1.8E1,1.13E2,4.6E1,3.61E2,4.1E1,5E0,1.05E2,1.07E2,2.48E2,1.8E1,1.19E2,2.26E2,2.2E1,9.2E1,4.3E1,1.62E2,1.67E2,1.2E1,6E0,4.8E1,6.5E1,2.7E1,1.9E1,7.8E1,2.83E2,2.9E1,1.2E1,1E0,4E0,3E0,1.02E2,6E0,1.01E2,2.9E1,2.19E2,1.7E1,1E0,2.5E1,9.4E1,2.8E1,1.98E2,1E0,2.1E1,7.5E1,1.7E1,3.7E1,6E0],"tree_param":{"num_deleted":"0","num_feature":"10","num_nodes":"63","size_leaf_vector":"1"}},{"base_weights":[9.095794E-3,-1.1553209E0,1.2888949E0,-1.5760971E0,-5.874791E-1,9.383725E-1,2.0310678E0,-1.7242482E0,-7.1604717E-1,-1.0944054E0,-2.9258403E-1,7.4052775E-1,1.4361742E0,9.486495E-1,2.1273348E0,-1.8261752E0,-9.0898746E-1,-4.135495E-1,-1.8022301E0,-1.2747105E0,-4.0012276E-1,-5.2163064E-1,4.001136E-2,1.0675756E0,5.367112E-1,2.1742108E0,1.3351358E0,7.857607E-2,4.286335E-1,1.8880078E0,2.4854038E0,-1.1642982E-1,-8.407248E-2,-4.9494963E-2,4.905529E-3,3.271332E-3,-2.8885499E-2,-2.6241774E-2,-9.232492E-2,4.4854313E-2,-6.501423E-2,-3.4967717E-2,5.7014967E-3,-5.7166018E-2,-1.8891364E-2,2.7736753E-2,-6.8117953E-3,4.2055734E-2,6.1197083E-2,8.418622E-3,3.727999E-2,3.5342753E-2,1.1526306E-1,5.1250268E-2,7.143503E-2,4.1586205E-2,-1.5731152E-2,1.0678033E-1,7.608077E-2,1.28438E-1,7.3499404E-2],"categories":[],"categories_nodes":[],"categories_segments":[],"categories_sizes":[],"default_left":[0,0,0,0,0,0,0,0,0,0,0,0,0,0,0,0,0,0,0,0,0,0,0,0,0,0,0,0,0,0,0,0,0,0,0,0,0,0,0,0,0,0,0,0,0,0,0,0,0,0,0,0,0,0,0,0,0,0,0,0,0],"id":6,"left_children":[1,3,5,7,9,11,13,15,17,19,21,23,25,27,29,31,33,35,37,39,41,43,45,47,49,51,53,-1,55,57,59,-1,-1,-1,-1,-1,-1,-1,-1,-1,-1,-1,-1,-1,-1,-1,-1,-1,-1,-1,-1,-1,-1,-1,-1,-1,-1,-1,-1,-1,-1],"loss_changes":[2.7777678E3,2.3227393E2,2.2910571E2,7.011902E1,6.2017166E1,5.8521362E1,2.7575073E1,3.7977295E1,2.6854382E1,1.8642914E1,2.020853E1,2.8423141E1,9.848572E0,7.423979E0,1.7588257E1,2.6842407E1,4.5788574E0,5.305936E0,4.8755646E-2,7.8869934E0,5.1568203E0,1.3603985E1,9.963907E0,4.848709E0,2.0648743E1,2.0241623E0,2.9752502E0,0E0,4.7556753E0,1.1265381E1,4.772705E0,0E0,0E0,0E0,0E0,0E0,0E0,0E0,0E0,0E0,0E0,0E0,0E0,0E0,0E0,0E0,0E0,0E0,0E0,0E0,0E0,0E0,0E0,0E0,0E0,0E0,0E0,0E0,0E0,0E0,0E0],"parents":[2147483647,0,0,1,1,2,2,3,3,4,4,5,5,6,6,7,7,8,8,9,9,10,10,11,11,12,12,13,13,14,14,15,15,16,16,17,17,18,18,19,19,20,20,21,21,22,22,23,23,24,24,25,25,26,26,28,28,29,29,30,30],"right_children":[2,4,6,8,10,12,14,16,18,20,22,24,26,28,30,32,34,36,38,40,42,44,46,48,50,52,54,-1,56,58,60,-1,-1,-1,-1,-1,-1,-1,-1,-1,-1,-1,-1,-1,-1,-1,-1,-1,-1,-1,-1,-1,-1,-1,-1,-1,-1,-1,-1,-1,-1],"split_conditions":[-8.251202E0,3.2221105E-2,4.1393813E-2,8.2718986E-1,2.7036797E1,-4.125583E0,1.4503692E-1,-1.0292478E1,2.2453308E-1,7.5919973E-3,3.0323162E1,1.2758255E-1,9.711838E-2,5.924306E0,1.11397445E-1,6.272457E-1,7.8698254E-1,1.6788483E-1,8.3190763E-1,1.1603165E-1,7.10522E-2,-1.0563559E1,1.4429092E-1,4.338063E0,-6.834879E0,9.6352816E-2,8.813745E-3,7.857607E-2,4.1899216E-1,2.4302553E1,5.6257045E-1,-1.1642982E-1,-8.407248E-2,-4.9494963E-2,4.905529E-3,3.271332E-3,-2.8885499E-2,-2.6241774E-2,-9.232492E-2,4.4854313E-2,-6.501423E-2,-3.4967717E-2,5.7014967E-3,-5.7166018E-2,-1.8891364E-2,2.7736753E-2,-6.8117953E-3,4.2055734E-2,6.1197083E-2,8.418622E-3,3.727999E-2,3.5342753E-2,1.1526306E-1,5.1250268E-2,7.143503E-2,4.1586205E-2,-1.5731152E-2,1.0678033E-1,7.608077E-2,1.28438E-1,7.3499404E-2],"split_indices":[0,3,4,2,6,0,3,0,1,4,6,1,1,7,4,2,2,1,2,1,3,0,1,7,0,3,4,0,2,6,3,0,0,0,0,0,0,0,0,0,0,0,0,0,0,0,0,0,0,0,0,0,0,0,0,0,0,0,0,0,0],"split_type":[0,0,0,0,0,0,0,0,0,0,0,0,0,0,0,0,0,0,0,0,0,0,0,0,0,0,0,0,0,0,0,0,0,0,0,0,0,0,0,0,0,0,0,0,0,0,0,0,0,0,0,0,0,0,0,0,0,0,0,0,0],"sum_hessian":[1.862E3,9.75E2,8.87E2,5.59E2,4.16E2,6.04E2,2.83E2,4.76E2,8.3E1,1.52E2,2.64E2,4.34E2,1.7E2,2.4E1,2.59E2,4.22E2,5.4E1,6.6E1,1.7E1,1.2E2,3.2E1,1.56E2,1.08E2,1.65E2,2.69E2,1.8E1,1.52E2,1E1,1.4E1,1.59E2,1E2,9.1E1,3.31E2,5E1,4E0,1.7E1,4.9E1,1E0,1.6E1,1E0,1.19E2,2E1,1.2E1,2.8E1,1.28E2,2.7E1,8.1E1,7E1,9.5E1,9.8E1,1.71E2,2E0,1.6E1,3.8E1,1.14E2,9E0,5E0,9.2E1,6.7E1,9.1E1,9E0],"tree_param":{"num_deleted":"0","num_feature":"10","num_nodes":"61","size_leaf_vector":"1"}},{"base_weights":[-3.0673887E-3,-1.0948243E0,1.2099993E0,-1.6256329E0,-7.1206933E-1,9.2258304E-1,1.9271708E0,-1.7874388E0,-7.609453E-1,-8.402005E-1,-4.475516E-2,6.6583115E-1,1.3183987E0,2.209622E0,1.4985428E0,-1.6037126E0,-2.2030685E0,-4.038431E-1,-1.4730252E0,-9.835983E-1,-2.0150778E-1,-8.988179E-1,1.554771E-1,3.5461724E-1,8.934904E-1,1.0865642E0,1.780126E0,1.9523975E0,1.2556571E-1,1.0909926E-1,1.3769304E0,-9.1055974E-2,-6.482463E-2,-1.11960046E-1,-5.1990386E-2,1.5751926E-2,-2.5977565E-2,-8.369747E-2,-4.016689E-2,-4.2621892E-2,-6.284251E-2,-1.4985262E-3,-5.652846E-2,-2.0751106E-2,-5.8447935E-2,-5.8690455E-2,1.3204577E-2,3.7227895E-2,7.998114E-3,4.0319137E-2,8.098378E-2,6.399189E-2,3.4730624E-2,9.1240086E-2,-2.3002624E-4,6.57746E-2,1.08201884E-1,5.2847214E-2,8.792445E-2],"categories":[],"categories_nodes":[],"categories_segments":[],"categories_sizes":[],"default_left":[0,0,0,0,0,0,0,0,0,0,0,0,0,0,0,0,0,0,0,0,0,0,0,0,0,0,0,0,0,0,0,0,0,0,0,0,0,0,0,0,0,0,0,0,0,0,0,0,0,0,0,0,0,0,0,0,0,0,0],"id":7,"left_children":[1,3,5,7,9,11,13,15,17,19,21,23,25,27,29,31,33,35,37,39,41,43,45,47,49,51,53,55,-1,-1,57,-1,-1,-1,-1,-1,-1,-1,-1,-1,-1,-1,-1,-1,-1,-1,-1,-1,-1,-1,-1,-1,-1,-1,-1,-1,-1,-1,-1],"loss_changes":[2.4911477E3,1.9998047E2,1.818811E2,5.6563232E1,4.9298065E1,6.3959778E1,2.7439697E1,2.3040894E1,1.6442242E1,4.4129974E1,1.6214773E1,2.7244095E1,2.4826843E1,6.8149414E0,5.6395416E0,1.4002808E1,2.0429077E0,3.9899821E0,1.6154938E0,1.3085358E1,1.4309298E1,1.8673296E0,1.1427228E1,1.2480946E1,1.2863327E1,1.1913422E1,6.54657E0,8.745605E0,0E0,0E0,9.251877E0,0E0,0E0,0E0,0E0,0E0,0E0,0E0,0E0,0E0,0E0,0E0,0E0,0E0,0E0,0E0,0E0,0E0,0E0,0E0,0E0,0E0,0E0,0E0,0E0,0E0,0E0,0E0,0E0],"parents":[2147483647,0,0,1,1,2,2,3,3,4,4,5,5,6,6,7,7,8,8,9,9,10,10,11,11,12,12,13,13,14,14,15,15,16,16,17,17,18,18,19,19,20,20,21,21,22,22,23,23,24,24,25,25,26,26,27,27,30,30],"right_children":[2,4,6,8,10,12,14,16,18,20,22,24,26,28,30,32,34,36,38,40,42,44,46,48,50,52,54,56,-1,-1,58,-1,-1,-1,-1,-1,-1,-1,-1,-1,-1,-1,-1,-1,-1,-1,-1,-1,-1,-1,-1,-1,-1,-1,-1,-1,-1,-1,-1],"split_conditions":[-8.251202E0,2.1322284E-2,-2.4892888E0,4.158206E1,4.986948E1,4.797733E0,4.9015874E-1,2.3672867E-1,2.2453308E-1,4.2373543E0,7.356898E-1,-6.1681943E0,-4.795286E0,4.5864815E-1,9.383011E-2,3.3167593E0,-1.0998984E1,1.580658E-1,-1.2182615E1,1.36964855E1,1.728117E1,1.5322113E-1,3.2298007E0,1.3200378E-1,5.3679653E1,1.3405609E-1,4.6590334E-1,1.4198927E1,1.2556571E-1,1.0909926E-1,1.653074E1,-9.1055974E-2,-6.482463E-2,-1.11960046E-1,-5.1990386E-2,1.5751926E-2,-2.5977565E-2,-8.369747E-2,-4.016689E-2,-4.2621892E-2,-6.284251E-2,-1.4985262E-3,-5.652846E-2,-2.0751106E-2,-5.8447935E-2,-5.8690455E-2,1.3204577E-2,3.7227895E-2,7.998114E-3,4.0319137E-2,8.098378E-2,6.399189E-2,3.4730624E-2,9.1240086E-2,-2.3002624E-4,6.57746E-2,1.08201884E-1,5.2847214E-2,8.792445E-2],"split_indices":[0,3,0,5,5,7,3,1,1,7,2,0,0,0,1,7,0,1,0,8,8,1,7,1,5,1,3,8,0,0,8,0,0,0,0,0,0,0,0,0,0,0,0,0,0,0,0,0,0,0,0,0,0,0,0,0,0,0,0],"split_type":[0,0,0,0,0,0,0,0,0,0,0,0,0,0,0,0,0,0,0,0,0,0,0,0,0,0,0,0,0,0,0,0,0,0,0,0,0,0,0,0,0,0,0,0,0,0,0,0,0,0,0,0,0,0,0,0,0,0,0],"sum_hessian":[1.879E3,9.89E2,8.9E2,4.13E2,5.76E2,6.37E2,2.53E2,3.47E2,6.6E1,4.83E2,9.3E1,3.88E2,2.49E2,1.5E2,1.03E2,2.44E2,1.03E2,4.5E1,2.1E1,3.94E2,8.9E1,1.7E1,7.6E1,1.65E2,2.23E2,1.68E2,8.1E1,8.5E1,6.5E1,1.3E1,9E1,1.4E2,1.04E2,9.9E1,4E0,6E0,3.9E1,1.5E1,6E0,2.69E2,1.25E2,7.6E1,1.3E1,7E0,1E1,5E0,7.1E1,5.4E1,1.11E2,2.01E2,2.2E1,1.11E2,5.7E1,7.9E1,2E0,2.3E1,6.2E1,5.1E1,3.9E1],"tree_param":{"num_deleted":"0","num_feature":"10","num_nodes":"59","size_leaf_vector":"1"}},{"base_weights":[1.9719345E-2,-1.0444547E0,1.1581162E0,-1.4433094E0,-5.95202E-1,7.8571284E-1,1.6949123E0,-1.810806E0,-8.9041024E-1,-9.0686417E-1,-9.422318E-2,5.91767E-1,1.1713696E0,1.4329139E0,2.031936E0,-2.10609E0,-1.6219904E0,-6.173564E-1,-1.4236135E0,-1.4134489E0,-7.1556664E-1,-7.353271E-1,2.1803686E-2,8.268441E-1,3.7955752E-1,9.139611E-1,1.4971395E0,1.1899824E0,2.0683784E0,9.07789E-2,2.5396962E0,-2.555463E-2,-1.06479466E-1,-6.830432E-2,-9.384819E-2,-5.2000936E-2,-1.24226585E-2,-4.6133357E-3,-7.3098905E-2,-3.7731063E-2,-8.099096E-2,4.7406086E-4,-4.1249216E-2,-4.6939433E-2,-6.737869E-3,-1.1567884E-2,1.3567354E-2,-8.189152E-4,4.4282656E-2,1.3367573E-2,4.9663786E-2,5.8319487E-2,3.6959082E-2,1.07630156E-1,6.71507E-2,1.0067966E-1,5.4696232E-2,1.06421016E-1,5.0912887E-2,7.108164E-2,1.3219567E-1],"categories":[],"categories_nodes":[],"categories_segments":[],"categories_sizes":[],"default_left":[0,0,0,0,0,0,0,0,0,0,0,0,0,0,0,0,0,0,0,0,0,0,0,0,0,0,0,0,0,0,0,0,0,0,0,0,0,0,0,0,0,0,0,0,0,0,0,0,0,0,0,0,0,0,0,0,0,0,0,0,0],"id":8,"left_children":[1,3,5,7,9,11,13,15,17,19,21,23,25,27,29,31,33,35,37,39,41,43,45,47,49,51,53,55,57,-1,59,-1,-1,-1,-1,-1,-1,-1,-1,-1,-1,-1,-1,-1,-1,-1,-1,-1,-1,-1,-1,-1,-1,-1,-1,-1,-1,-1,-1,-1,-1],"loss_changes":[2.264203E3,1.7223523E2,1.7918225E2,1.0221692E2,7.111264E1,3.9322906E1,2.967102E1,1.3644775E1,2.9113327E1,2.6219849E1,1.31078415E1,1.7545212E1,1.3558029E1,3.0111633E1,1.2856323E1,3.2593384E0,9.8984375E0,2.125877E1,3.389389E0,9.110825E0,1.6350441E1,3.1727E0,9.53899E0,8.395058E0,1.2818399E1,3.638008E0,4.887848E0,1.0059982E1,1.426651E0,0E0,1.4848328E0,0E0,0E0,0E0,0E0,0E0,0E0,0E0,0E0,0E0,0E0,0E0,0E0,0E0,0E0,0E0,0E0,0E0,0E0,0E0,0E0,0E0,0E0,0E0,0E0,0E0,0E0,0E0,0E0,0E0,0E0],"parents":[2147483647,0,0,1,1,2,2,3,3,4,4,5,5,6,6,7,7,8,8,9,9,10,10,11,11,12,12,13,13,14,14,15,15,16,16,17,17,18,18,19,19,20,20,21,21,22,22,23,23,24,24,25,25,26,26,27,27,28,28,30,30],"right_children":[2,4,6,8,10,12,14,16,18,20,22,24,26,28,30,32,34,36,38,40,42,44,46,48,50,52,54,56,58,-1,60,-1,-1,-1,-1,-1,-1,-1,-1,-1,-1,-1,-1,-1,-1,-1,-1,-1,-1,-1,-1,-1,-1,-1,-1,-1,-1,-1,-1,-1,-1],"split_conditions":[-8.251202E0,-1.0636072E1,2.7440604E-2,3.9745857E1,2.8042774E1,-4.955292E0,1.669877E1,3.5048096E1,2.1871948E-1,1.4482768E-3,1.2571648E-3,1.3454437E-1,1.4390196E1,-4.325883E-3,1.23369776E-1,1.0989761E-1,2.2283936E-1,4.3914658E1,1E0,1.417427E-1,1.4865875E-1,1.6877365E-1,3.1074516E1,1.5892907E-3,5.2691105E1,1.2427521E-1,4.0973507E1,9.383011E-2,2.6138823E1,9.07789E-2,1.00933075E-1,-2.555463E-2,-1.06479466E-1,-6.830432E-2,-9.384819E-2,-5.2000936E-2,-1.24226585E-2,-4.6133357E-3,-7.3098905E-2,-3.7731063E-2,-8.099096E-2,4.7406086E-4,-4.1249216E-2,-4.6939433E-2,-6.737869E-3,-1.1567884E-2,1.3567354E-2,-8.189152E-4,4.4282656E-2,1.3367573E-2,4.9663786E-2,5.8319487E-2,3.6959082E-2,1.07630156E-1,6.71507E-2,1.0067966E-1,5.4696232E-2,1.06421016E-1,5.0912887E-2,7.108164E-2,1.3219567E-1],"split_indices":[0,0,4,5,6,0,8,5,1,4,4,1,8,0,4,1,1,5,9,1,1,1,6,4,5,1,5,1,6,0,1,0,0,0,0,0,0,0,0,0,0,0,0,0,0,0,0,0,0,0,0,0,0,0,0,0,0,0,0,0,0],"split_type":[0,0,0,0,0,0,0,0,0,0,0,0,0,0,0,0,0,0,0,0,0,0,0,0,0,0,0,0,0,0,0,0,0,0,0,0,0,0,0,0,0,0,0,0,0,0,0,0,0,0,0,0,0,0,0,0,0,0,0,0,0],"sum_hessian":[1.867E3,9.65E2,9.02E2,5.1E2,4.55E2,5.34E2,3.68E2,3.05E2,2.05E2,2.8E2,1.75E2,3.57E2,1.77E2,2.1E2,1.58E2,1.15E2,1.9E2,1.37E2,6.8E1,7.5E1,2.05E2,2.6E1,1.49E2,1.68E2,1.89E2,1.01E2,7.6E1,1.54E2,5.6E1,1.14E2,4.4E1,2E0,1.13E2,9.8E1,9.2E1,6.3E1,7.4E1,2E0,6.6E1,1.9E1,5.6E1,2.7E1,1.78E2,1.9E1,7E0,7.4E1,7.5E1,1.1E1,1.57E2,1.61E2,2.8E1,3.9E1,6.2E1,1.2E1,6.4E1,1.4E1,1.4E2,5.2E1,4E0,5E0,3.9E1],"tree_param":{"num_deleted":"0","num_feature":"10","num_nodes":"61","size_leaf_vector":"1"}},{"base_weights":[-6.576277E-3,-9.8042053E-1,1.079685E0,-1.4469174E0,-6.119121E-1,8.0575824E-1,1.73165E0,-1.6060065E0,-5.913064E-1,-9.034234E-1,-3.028237E-1,6.53932E-1,1.3544937E0,2.0252175E0,1.4223831E0,-1.8696849E0,-1.3972516E0,3.6640948E-1,-7.0534545E-1,-1.1269858E0,-4.875058E-1,-1.1432654E0,-1.6689655E-1,2.5453568E-1,7.813076E-1,9.850972E-1,1.9479902E0,1.5419633E0,2.230515E0,1.1399487E0,8.294897E-2,-9.835325E-2,-5.2943435E-2,-7.811232E-2,-4.7464754E-2,3.8139638E-2,-1.1989522E-3,-2.731042E-2,-4.849289E-2,-4.706646E-2,-7.3556915E-2,-5.672446E-2,-1.3975871E-2,4.3758567E-2,-6.118217E-2,-1.6404508E-2,7.3700584E-3,1.462826E-2,-6.5673E-2,2.6003962E-2,4.467817E-2,3.7292793E-2,7.450514E-2,1.2249942E-1,8.7179035E-2,2.5966907E-2,8.836532E-2,1.0300272E-1,1.3750517E-1,4.3810308E-2,7.049278E-2],"categories":[],"categories_nodes":[],"categories_segments":[],"categories_sizes":[],"default_left":[0,0,0,0,0,0,0,0,0,0,0,0,0,0,0,0,0,0,0,0,0,0,0,0,0,0,0,0,0,0,0,0,0,0,0,0,0,0,0,0,0,0,0,0,0,0,0,0,0,0,0,0,0,0,0,0,0,0,0,0,0],"id":9,"left_children":[1,3,5,7,9,11,13,15,17,19,21,23,25,27,29,31,33,35,37,39,41,43,45,47,49,51,53,55,57,59,-1,-1,-1,-1,-1,-1,-1,-1,-1,-1,-1,-1,-1,-1,-1,-1,-1,-1,-1,-1,-1,-1,-1,-1,-1,-1,-1,-1,-1,-1,-1],"loss_changes":[1.9580796E3,1.6689691E2,1.5487152E2,5.7581238E1,4.901265E1,5.060138E1,2.0543335E1,1.7313538E1,7.7944202E0,2.5578949E1,3.031096E1,2.4525574E1,2.7239365E1,9.458069E0,6.7289734E0,1.0313477E1,1.3742523E1,1.256239E0,2.0800629E0,1.0243912E1,1.3139391E1,7.073696E0,1.1751465E1,7.4802537E0,1.032666E1,9.037323E0,8.5891724E-1,8.760704E0,2.2172852E0,3.1782074E0,0E0,0E0,0E0,0E0,0E0,0E0,0E0,0E0,0E0,0E0,0E0,0E0,0E0,0E0,0E0,0E0,0E0,0E0,0E0,0E0,0E0,0E0,0E0,0E0,0E0,0E0,0E0,0E0,0E0,0E0,0E0],"parents":[2147483647,0,0,1,1,2,2,3,3,4,4,5,5,6,6,7,7,8,8,9,9,10,10,11,11,12,12,13,13,14,14,15,15,16,16,17,17,18,18,19,19,20,20,21,21,22,22,23,23,24,24,25,25,26,26,27,27,28,28,29,29],"right_children":[2,4,6,8,10,12,14,16,18,20,22,24,26,28,30,32,34,36,38,40,42,44,46,48,50,52,54,56,58,60,-1,-1,-1,-1,-1,-1,-1,-1,-1,-1,-1,-1,-1,-1,-1,-1,-1,-1,-1,-1,-1,-1,-1,-1,-1,-1,-1,-1,-1,-1,-1],"split_conditions":[-8.251202E0,3.8721718E1,-2.4892888E0,-9.691983E0,3.9234415E-2,5.4032545E0,4.43369E-1,6.498878E-1,3.2186134E1,4.398752E1,2.5639118E1,-6.891528E0,1.6783882E1,1.4198927E1,1.6058714E1,3.780629E0,-1.118806E1,3.19148E0,1.3523629E1,2.9561426E1,-1.2114016E1,3.8872993E1,3.117136E1,2.2164713E1,3.3840595E1,-4.6567345E0,1.8247779E-1,-1.7771959E0,4.817867E1,-7.577394E-1,8.294897E-2,-9.835325E-2,-5.2943435E-2,-7.811232E-2,-4.7464754E-2,3.8139638E-2,-1.1989522E-3,-2.731042E-2,-4.849289E-2,-4.706646E-2,-7.3556915E-2,-5.672446E-2,-1.3975871E-2,4.3758567E-2,-6.118217E-2,-1.6404508E-2,7.3700584E-3,1.462826E-2,-6.5673E-2,2.6003962E-2,4.467817E-2,3.7292793E-2,7.450514E-2,1.2249942E-1,8.7179035E-2,2.5966907E-2,8.836532E-2,1.0300272E-1,1.3750517E-1,4.3810308E-2,7.049278E-2],"split_indices":[0,5,0,0,3,7,3,2,5,5,6,0,8,8,8,7,0,7,8,6,0,5,6,8,5,0,3,0,5,0,0,0,0,0,0,0,0,0,0,0,0,0,0,0,0,0,0,0,0,0,0,0,0,0,0,0,0,0,0,0,0],"split_type":[0,0,0,0,0,0,0,0,0,0,0,0,0,0,0,0,0,0,0,0,0,0,0,0,0,0,0,0,0,0,0,0,0,0,0,0,0,0,0,0,0,0,0,0,0,0,0,0,0,0,0,0,0,0,0,0,0,0,0,0,0],"sum_hessian":[1.849E3,9.75E2,8.74E2,4.29E2,5.46E2,6.17E2,2.57E2,3.61E2,6.8E1,2.8E2,2.66E2,4.85E2,1.32E2,1.29E2,1.28E2,1.56E2,2.05E2,7E0,6.1E1,1.81E2,9.9E1,3.6E1,2.3E2,1.18E2,3.67E2,8.3E1,4.9E1,4.1E1,8.8E1,6.1E1,6.7E1,1.38E2,1.8E1,1.48E2,5.7E1,3E0,4E0,4E1,2.1E1,1.2E2,6.1E1,2.3E1,7.6E1,1E0,3.5E1,1.52E2,7.8E1,1.16E2,2E0,1.12E2,2.55E2,5.8E1,2.5E1,1.1E1,3.8E1,8E0,3.3E1,7E1,1.8E1,3.3E1,2.8E1],"tree_param":{"num_deleted":"0","num_feature":"10","num_nodes":"61","size_leaf_vector":"1"}},{"base_weights":[3.675691E-3,-9.508603E-1,9.4798785E-1,-1.2772288E0,-4.4524595E-1,4.4652537E-1,1.4840407E0,-1.1030744E0,-1.8186121E0,4.6707454E-1,-6.1969584E-1,7.027101E-1,9.145464E-2,1.2818538E0,2.0310578E0,-1.2407662E0,-4.294804E-1,-1.02006316E-1,-1.5164452E0,9.564671E-1,3.349957E-1,-7.364043E-1,1.3143364E-1,4.4395454E-2,7.6965827E-1,-1.5517355E0,1.6644064E-1,1.1169387E0,1.58742E0,1.8602165E0,2.6369145E0,-7.175034E-2,-4.1493353E-2,-1.2380183E-2,-4.9078174E-2,-1.4587076E-2,-7.765079E-2,5.157723E-2,3.265357E-3,1.3282408E-2,3.8807683E-2,-6.0682185E-2,-2.9387558E-2,2.9304815E-2,-7.1432004E-3,-5.4730116E-3,4.7821537E-2,4.7419347E-2,2.8957365E-2,-8.736976E-2,-2.8897537E-2,-3.7573439E-3,2.5161132E-2,9.690666E-2,4.956819E-2,7.490328E-2,1.1834492E-1,9.5909566E-2,5.4010924E-2,1.398734E-1,5.673901E-2],"categories":[],"categories_nodes":[],"categories_segments":[],"categories_sizes":[],"default_left":[0,0,0,0,0,0,0,0,0,0,0,0,0,0,0,0,0,0,0,0,0,0,0,0,0,0,0,0,0,0,0,0,0,0,0,0,0,0,0,0,0,0,0,0,0,0,0,0,0,0,0,0,0,0,0,0,0,0,0,0,0],"id":10,"left_children":[1,3,5,7,9,11,13,15,17,19,21,23,25,27,29,31,33,-1,35,37,39,41,43,45,47,49,51,53,55,57,59,-1,-1,-1,-1,-1,-1,-1,-1,-1,-1,-1,-1,-1,-1,-1,-1,-1,-1,-1,-1,-1,-1,-1,-1,-1,-1,-1,-1,-1,-1],"loss_changes":[1.6747639E3,1.5190656E2,2.5040625E2,5.088745E1,5.8221573E1,4.3962166E1,4.727704E1,3.907068E1,5.942383E0,3.4932537E0,2.6921722E1,1.2350342E1,2.539439E1,1.4957275E1,7.5154114E0,2.706305E1,7.18738E0,0E0,2.2789917E0,7.355051E-1,1.2622905E0,1.8086594E1,5.321674E0,3.8933804E0,8.133438E0,7.048664E-1,1.5984831E1,2.066217E1,4.3943176E0,2.314331E0,2.6136475E0,0E0,0E0,0E0,0E0,0E0,0E0,0E0,0E0,0E0,0E0,0E0,0E0,0E0,0E0,0E0,0E0,0E0,0E0,0E0,0E0,0E0,0E0,0E0,0E0,0E0,0E0,0E0,0E0,0E0,0E0],"parents":[2147483647,0,0,1,1,2,2,3,3,4,4,5,5,6,6,7,7,8,8,9,9,10,10,11,11,12,12,13,13,14,14,15,15,16,16,18,18,19,19,20,20,21,21,22,22,23,23,24,24,25,25,26,26,27,27,28,28,29,29,30,30],"right_children":[2,4,6,8,10,12,14,16,18,20,22,24,26,28,30,32,34,-1,36,38,40,42,44,46,48,50,52,54,56,58,60,-1,-1,-1,-1,-1,-1,-1,-1,-1,-1,-1,-1,-1,-1,-1,-1,-1,-1,-1,-1,-1,-1,-1,-1,-1,-1,-1,-1,-1,-1],"split_conditions":[9.1810286E-2,3.2221105E-2,1.6774332E-2,2.3226929E-1,3.1575506E1,1.4352798E-1,9.581372E-2,4.3280754E1,3.7264805E1,1.2427521E-1,4.9982197E1,1.7236426E-3,4.1838086E-4,1.71905E1,4.896945E1,3.2242797E-3,2.1014404E-1,-1.02006316E-1,1.0161787E1,2.2081846E-1,2.3669431E-2,1.2571648E-3,1.449585E-1,4.474255E0,4.4915587E-1,1.1717442E-1,1.8479142E-1,9.383011E-2,2.1807924E1,5.5440295E-1,5.2171904E-1,-7.175034E-2,-4.1493353E-2,-1.2380183E-2,-4.9078174E-2,-1.4587076E-2,-7.765079E-2,5.157723E-2,3.265357E-3,1.3282408E-2,3.8807683E-2,-6.0682185E-2,-2.9387558E-2,2.9304815E-2,-7.1432004E-3,-5.4730116E-3,4.7821537E-2,4.7419347E-2,2.8957365E-2,-8.736976E-2,-2.8897537E-2,-3.7573439E-3,2.5161132E-2,9.690666E-2,4.956819E-2,7.490328E-2,1.1834492E-1,9.5909566E-2,5.4010924E-2,1.398734E-1,5.673901E-2],"split_indices":[3,3,4,1,5,1,4,5,5,1,5,4,4,8,5,4,1,0,8,2,4,4,1,7,2,3,3,1,8,3,3,0,0,0,0,0,0,0,0,0,0,0,0,0,0,0,0,0,0,0,0,0,0,0,0,0,0,0,0,0,0],"split_type":[0,0,0,0,0,0,0,0,0,0,0,0,0,0,0,0,0,0,0,0,0,0,0,0,0,0,0,0,0,0,0,0,0,0,0,0,0,0,0,0,0,0,0,0,0,0,0,0,0,0,0,0,0,0,0,0,0,0,0,0,0],"sum_hessian":[1.856E3,9.23E2,9.33E2,5.6E2,3.63E2,4.83E2,4.5E2,4.26E2,1.34E2,5.8E1,3.05E2,2.8E2,2.03E2,3.31E2,1.19E2,3.53E2,7.3E1,7.4E1,6E1,1.1E1,4.7E1,2.64E2,4.1E1,2.6E1,2.54E2,8E0,1.95E2,2.18E2,1.13E2,9.6E1,2.3E1,2.38E2,1.15E2,5.6E1,1.7E1,2E0,5.8E1,1E1,1E0,4.2E1,5E0,6.1E1,2.03E2,1.5E1,2.6E1,2.3E1,3E0,1.29E2,1.25E2,6E0,2E0,1.14E2,8.1E1,2.7E1,1.91E2,1.04E2,9E0,8.8E1,8E0,2E1,3E0],"tree_param":{"num_deleted":"0","num_feature":"10","num_nodes":"61","size_leaf_vector":"1"}},{"base_weights":[1.4359239E-2,-8.838634E-1,1.0073836E0,-1.3580679E0,-5.87297E-1,7.451134E-1,1.6590617E0,-1.5890716E0,-7.2647905E-1,-4.3273696E-1,-1.1905884E0,5.119337E-1,1.0501368E0,2.5956878E-1,1.7038828E0,-1.3590631E0,-1.88866E0,-8.9573073E-1,-2.4718055E-1,-9.4883573E-1,-2.5614423E-1,-1.5393188E0,-6.5763026E-1,9.9290895E-1,4.140322E-1,7.9560643E-1,1.3261232E0,-4.8013023E-1,6.521126E-2,1.6133422E0,2.3447204E0,3.4841298E-4,-6.9277376E-2,-9.699937E-2,-4.766205E-2,-6.395606E-2,-3.1311054E-2,5.4761725E-3,-1.8564865E-2,-5.8678158E-2,-2.6911145E-2,1.5426095E-2,-2.0571008E-2,-9.327968E-4,-7.909458E-2,-1.3750567E-2,-3.9939366E-2,7.509095E-2,4.3682694E-2,1.7023994E-2,4.487684E-2,4.5038633E-2,8.5734045E-3,1.0269592E-1,5.9865784E-2,-3.674711E-2,9.83119E-4,7.27715E-2,9.6897624E-2,1.2072805E-1,4.7893025E-2],"categories":[],"categories_nodes":[],"categories_segments":[],"categories_sizes":[],"default_left":[0,0,0,0,0,0,0,0,0,0,0,0,0,0,0,0,0,0,0,0,0,0,0,0,0,0,0,0,0,0,0,0,0,0,0,0,0,0,0,0,0,0,0,0,0,0,0,0,0,0,0,0,0,0,0,0,0,0,0,0,0],"id":11,"left_children":[1,3,5,7,9,11,13,15,17,19,21,23,25,27,29,31,33,35,37,39,41,43,45,47,49,51,53,55,-1,57,59,-1,-1,-1,-1,-1,-1,-1,-1,-1,-1,-1,-1,-1,-1,-1,-1,-1,-1,-1,-1,-1,-1,-1,-1,-1,-1,-1,-1,-1,-1],"loss_changes":[1.6545786E3,1.3617908E2,1.4934058E2,5.3411865E1,5.5524887E1,4.427133E1,1.536499E1,1.6245056E1,8.053047E0,4.3503815E1,2.1662445E1,1.6493568E1,1.8052063E1,7.580779E0,1.0374451E1,5.72583E0,3.7202148E0,6.9485397E0,1.280308E0,1.0626022E1,3.1603712E1,4.696411E0,2.480795E0,2.3293343E0,1.0363277E1,9.297455E0,9.633987E0,7.785696E-1,0E0,8.302856E0,3.9923096E-1,0E0,0E0,0E0,0E0,0E0,0E0,0E0,0E0,0E0,0E0,0E0,0E0,0E0,0E0,0E0,0E0,0E0,0E0,0E0,0E0,0E0,0E0,0E0,0E0,0E0,0E0,0E0,0E0,0E0,0E0],"parents":[2147483647,0,0,1,1,2,2,3,3,4,4,5,5,6,6,7,7,8,8,9,9,10,10,11,11,12,12,13,13,14,14,15,15,16,16,17,17,18,18,19,19,20,20,21,21,22,22,23,23,24,24,25,25,26,26,27,27,29,29,30,30],"right_children":[2,4,6,8,10,12,14,16,18,20,22,24,26,28,30,32,34,36,38,40,42,44,46,48,50,52,54,56,-1,58,60,-1,-1,-1,-1,-1,-1,-1,-1,-1,-1,-1,-1,-1,-1,-1,-1,-1,-1,-1,-1,-1,-1,-1,-1,-1,-1,-1,-1,-1,-1],"split_conditions":[-8.251202E0,3.7995544E1,4.7373958E-2,-1.0292478E1,2.1871948E-1,-5.0026617E0,-6.2152257E0,2.2067642E-1,-9.127706E0,1.4091595E-3,-1.1506971E1,1.1471939E-1,1.4573457E1,1.4497946E1,1.9828724E1,1.0953522E-1,-1.0998984E1,1.7520523E-1,3.2186134E1,1.7858887E-1,1.449585E-1,1E0,1.1458987E1,9.469223E-2,2.3105288E-2,2.6368982E1,9.788895E-2,1.2395248E1,6.521126E-2,1.0525384E0,2.4620483E1,3.4841298E-4,-6.9277376E-2,-9.699937E-2,-4.766205E-2,-6.395606E-2,-3.1311054E-2,5.4761725E-3,-1.8564865E-2,-5.8678158E-2,-2.6911145E-2,1.5426095E-2,-2.0571008E-2,-9.327968E-4,-7.909458E-2,-1.3750567E-2,-3.9939366E-2,7.509095E-2,4.3682694E-2,1.7023994E-2,4.487684E-2,4.5038633E-2,8.5734045E-3,1.0269592E-1,5.9865784E-2,-3.674711E-2,9.83119E-4,7.27715E-2,9.6897624E-2,1.2072805E-1,4.7893025E-2],"split_indices":[0,5,4,0,1,0,0,1,0,4,0,1,8,8,8,1,0,1,5,1,1,9,8,1,4,6,1,8,0,0,6,0,0,0,0,0,0,0,0,0,0,0,0,0,0,0,0,0,0,0,0,0,0,0,0,0,0,0,0,0,0],"split_type":[0,0,0,0,0,0,0,0,0,0,0,0,0,0,0,0,0,0,0,0,0,0,0,0,0,0,0,0,0,0,0,0,0,0,0,0,0,0,0,0,0,0,0,0,0,0,0,0,0,0,0,0,0,0,0,0,0,0,0,0,0],"sum_hessian":[1.853E3,9.73E2,8.8E2,3.73E2,6E2,6.29E2,2.51E2,2.72E2,1.01E2,4.79E2,1.21E2,3.58E2,2.71E2,8E0,2.43E2,1.57E2,1.15E2,7.4E1,2.7E1,1.21E2,3.58E2,7.2E1,4.9E1,5.9E1,2.99E2,1.43E2,1.28E2,5E0,3E0,2.16E2,2.7E1,3E0,1.54E2,1.08E2,7E0,2.9E1,4.5E1,7E0,2E1,7.7E1,4.4E1,7.7E1,2.81E2,2E0,7E1,1.4E1,3.5E1,9E0,5E1,2.61E2,3.8E1,1.22E2,2.1E1,1.7E1,1.11E2,3E0,2E0,1.49E2,6.7E1,2.5E1,2E0],"tree_param":{"num_deleted":"0","num_feature":"10","num_nodes":"61","size_leaf_vector":"1"}},{"base_weights":[7.1376106E-3,-8.28894E-1,9.675532E-1,-1.1589468E0,-4.3550053E-1,7.1912533E-1,1.588226E0,-1.3049966E0,-5.018166E-1,2.1619147E-1,-5.919274E-1,5.244226E-1,9.702966E-1,1.4907509E0,2.2436032E0,-1.5133855E0,-9.425242E-1,-1.0697225E0,-3.2792357E-1,-7.6418805E-1,3.0920178E-1,-9.438967E-1,-3.4541687E-1,8.050782E-1,3.9521873E-1,7.581023E-1,1.229222E0,1.3263673E0,1.849235E0,4.885404E-2,2.3481398E0,-8.660555E-2,-6.699414E-2,-5.726562E-2,-3.3374943E-2,-5.7229843E-2,1.4437831E-2,-2.2088667E-2,4.4497434E-2,8.1751944E-4,-4.3901466E-2,3.0027835E-2,4.5156903E-3,-3.5070036E-2,-6.499962E-2,-9.826628E-3,-5.2274328E-2,2.7089814E-2,4.7683448E-2,1.668669E-2,4.5900922E-2,4.2177197E-2,1.2296248E-2,8.955697E-2,5.5954434E-2,2.245312E-2,6.989234E-2,9.350138E-2,1.2442864E-2,2.9889202E-2,1.19623475E-1],"categories":[],"categories_nodes":[],"categories_segments":[],"categories_sizes":[],"default_left":[0,0,0,0,0,0,0,0,0,0,0,0,0,0,0,0,0,0,0,0,0,0,0,0,0,0,0,0,0,0,0,0,0,0,0,0,0,0,0,0,0,0,0,0,0,0,0,0,0,0,0,0,0,0,0,0,0,0,0,0,0],"id":12,"left_children":[1,3,5,7,9,11,13,15,17,19,21,23,25,27,29,31,33,35,37,39,41,43,45,47,49,51,53,55,57,-1,59,-1,-1,-1,-1,-1,-1,-1,-1,-1,-1,-1,-1,-1,-1,-1,-1,-1,-1,-1,-1,-1,-1,-1,-1,-1,-1,-1,-1,-1,-1],"loss_changes":[1.4958722E3,1.2881647E2,1.3254266E2,5.1266968E1,4.661358E1,2.9860413E1,1.2434387E1,3.1960205E1,9.5247E0,8.3517885E0,3.1603165E1,1.2445961E1,1.3902573E1,1.0393707E1,1.677597E0,8.26709E0,8.382095E0,2.66996E0,1.1208203E1,7.252159E-1,5.1752357E0,1.2127304E1,2.2516539E1,3.786644E0,7.5046997E0,6.400505E0,5.4218597E0,8.966827E0,1.730835E0,0E0,6.6482544E-1,0E0,0E0,0E0,0E0,0E0,0E0,0E0,0E0,0E0,0E0,0E0,0E0,0E0,0E0,0E0,0E0,0E0,0E0,0E0,0E0,0E0,0E0,0E0,0E0,0E0,0E0,0E0,0E0,0E0,0E0],"parents":[2147483647,0,0,1,1,2,2,3,3,4,4,5,5,6,6,7,7,8,8,9,9,10,10,11,11,12,12,13,13,14,14,15,15,16,16,17,17,18,18,19,19,20,20,21,21,22,22,23,23,24,24,25,25,26,26,27,27,28,28,30,30],"right_children":[2,4,6,8,10,12,14,16,18,20,22,24,26,28,30,32,34,36,38,40,42,44,46,48,50,52,54,56,58,-1,60,-1,-1,-1,-1,-1,-1,-1,-1,-1,-1,-1,-1,-1,-1,-1,-1,-1,-1,-1,-1,-1,-1,-1,-1,-1,-1,-1,-1,-1,-1],"split_conditions":[-7.924438E0,3.6503677E0,4.7373958E-2,-9.846673E0,1.4247894E-1,-5.0026617E0,1.9828724E1,7.497719E-1,1.3250962E-3,2.386579E1,2.7744486E1,1.2427521E-1,1.5009048E1,1.0525384E0,5.6025803E-2,6.4288956E-1,-1.1541288E1,3.264589E1,2.92513E1,4.5781595E-1,1.2701797E-1,1.4316285E1,2.1871948E-1,4.2532053E0,2.3105288E-2,2.6878122E1,9.788895E-2,1.1790957E1,2.6138823E1,4.885404E-2,3.382711E0,-8.660555E-2,-6.699414E-2,-5.726562E-2,-3.3374943E-2,-5.7229843E-2,1.4437831E-2,-2.2088667E-2,4.4497434E-2,8.1751944E-4,-4.3901466E-2,3.0027835E-2,4.5156903E-3,-3.5070036E-2,-6.499962E-2,-9.826628E-3,-5.2274328E-2,2.7089814E-2,4.7683448E-2,1.668669E-2,4.5900922E-2,4.2177197E-2,1.2296248E-2,8.955697E-2,5.5954434E-2,2.245312E-2,6.989234E-2,9.350138E-2,1.2442864E-2,2.9889202E-2,1.19623475E-1],"split_indices":[0,7,4,0,1,0,8,2,4,6,6,1,8,0,4,2,0,6,6,2,1,8,1,7,4,6,1,8,6,0,7,0,0,0,0,0,0,0,0,0,0,0,0,0,0,0,0,0,0,0,0,0,0,0,0,0,0,0,0,0,0],"split_type":[0,0,0,0,0,0,0,0,0,0,0,0,0,0,0,0,0,0,0,0,0,0,0,0,0,0,0,0,0,0,0,0,0,0,0,0,0,0,0,0,0,0,0,0,0,0,0,0,0,0,0,0,0,0,0,0,0,0,0,0,0],"sum_hessian":[1.861E3,9.95E2,8.66E2,5.4E2,4.55E2,6.2E2,2.46E2,4.41E2,9.9E1,8.8E1,3.67E2,3.51E2,2.69E2,2.17E2,2.9E1,2.78E2,1.63E2,2.2E1,7.7E1,7E0,8.1E1,1.5E2,2.17E2,1.09E2,2.42E2,1.5E2,1.19E2,1.52E2,6.5E1,3E0,2.6E1,1.19E2,1.59E2,9.2E1,7.1E1,2.1E1,1E0,7.1E1,6E0,1E0,6E0,3.4E1,4.7E1,9.1E1,5.9E1,1.8E2,3.7E1,4.1E1,6.8E1,2.18E2,2.4E1,1.28E2,2.2E1,1.7E1,1.02E2,1.2E1,1.4E2,6.4E1,1E0,1E0,2.5E1],"tree_param":{"num_deleted":"0","num_feature":"10","num_nodes":"61","size_leaf_vector":"1"}},{"base_weights":[-4.5050313E-3,-8.097723E-1,8.8833565E-1,-1.2535944E0,-5.223758E-1,4.8816413E-1,1.264776E0,-1.4416959E0,-6.97445E-1,3.6302764E-2,-6.5865755E-1,2.6394925E-1,6.734231E-1,1.0630088E0,1.6112012E0,-1.2423463E0,-1.7082115E0,-1.1710919E0,-5.239481E-1,-5.896636E-1,1.9241622E-1,-9.8612964E-1,-4.999022E-1,4.03003E-1,-7.048256E-2,5.9000224E-1,1.2293605E0,5.2835315E-1,1.241256E0,1.4496564E0,2.0433385E0,-8.0051005E-2,-4.894256E-2,-8.73923E-2,-2.1956025E-2,-2.4488328E-2,-6.755006E-2,-3.181059E-2,-1.0248715E-2,-4.348527E-2,3.9566457E-3,-5.2676167E-2,1.2901942E-2,-2.9570831E-2,-6.484585E-2,-1.865962E-2,-5.5434275E-2,-3.7346033E-3,2.3704741E-2,3.2180275E-3,-4.6907622E-2,4.2634774E-2,2.0957863E-2,3.5082873E-2,7.7109076E-2,3.2165516E-2,-1.4159972E-2,7.899621E-2,5.232429E-2,7.978027E-2,5.3675998E-2,7.68646E-3,1.04233444E-1],"categories":[],"categories_nodes":[],"categories_segments":[],"categories_sizes":[],"default_left":[0,0,0,0,0,0,0,0,0,0,0,0,0,0,0,0,0,0,0,0,0,0,0,0,0,0,0,0,0,0,0,0,0,0,0,0,0,0,0,0,0,0,0,0,0,0,0,0,0,0,0,0,0,0,0,0,0,0,0,0,0,0,0],"id":13,"left_children":[1,3,5,7,9,11,13,15,17,19,21,23,25,27,29,31,33,35,37,39,41,43,45,47,49,51,53,55,57,59,61,-1,-1,-1,-1,-1,-1,-1,-1,-1,-1,-1,-1,-1,-1,-1,-1,-1,-1,-1,-1,-1,-1,-1,-1,-1,-1,-1,-1,-1,-1,-1,-1],"loss_changes":[1.352393E3,1.25494995E2,1.3375409E2,3.9584167E1,4.5858795E1,1.784967E1,3.0370117E1,1.32323E1,7.6040344E0,1.17423525E1,2.4669205E1,9.236197E0,1.0265968E1,2.7267334E1,8.696045E0,1.4404846E1,5.3187866E0,2.525322E0,2.5552826E0,4.5638056E0,8.120985E0,1.8492447E1,2.4887764E1,4.7898407E0,6.963339E0,8.977592E0,3.8702126E0,7.1792183E0,1.2792419E1,5.1492004E0,3.0377502E0,0E0,0E0,0E0,0E0,0E0,0E0,0E0,0E0,0E0,0E0,0E0,0E0,0E0,0E0,0E0,0E0,0E0,0E0,0E0,0E0,0E0,0E0,0E0,0E0,0E0,0E0,0E0,0E0,0E0,0E0,0E0,0E0],"parents":[2147483647,0,0,1,1,2,2,3,3,4,4,5,5,6,6,7,7,8,8,9,9,10,10,11,11,12,12,13,13,14,14,15,15,16,16,17,17,18,18,19,19,20,20,21,21,22,22,23,23,24,24,25,25,26,26,27,27,28,28,29,29,30,30],"right_children":[2,4,6,8,10,12,14,16,18,20,22,24,26,28,30,32,34,36,38,40,42,44,46,48,50,52,54,56,58,60,62,-1,-1,-1,-1,-1,-1,-1,-1,-1,-1,-1,-1,-1,-1,-1,-1,-1,-1,-1,-1,-1,-1,-1,-1,-1,-1,-1,-1,-1,-1,-1,-1],"split_conditions":[-8.251202E0,3.806818E1,1.6774332E-2,-1.0292478E1,1.4865875E-1,-6.3970313E0,-1.0360523E0,2.2067642E-1,1.048017E-3,4.8069624E-4,-1.1506971E1,1.5730286E-1,5.383747E1,1.4088105E1,5.2457876E0,6.382326E-1,7.7289957E-1,1.3767242E-1,-9.09932E0,4.00097E0,2.5005245E1,2.0921707E-1,1.5477796E1,1.5892907E-3,1.5727682E1,1.2427521E-1,1.5477796E1,6.478045E0,2.4255539E1,2.3660545E1,2.9489523E1,-8.0051005E-2,-4.894256E-2,-8.73923E-2,-2.1956025E-2,-2.4488328E-2,-6.755006E-2,-3.181059E-2,-1.0248715E-2,-4.348527E-2,3.9566457E-3,-5.2676167E-2,1.2901942E-2,-2.9570831E-2,-6.484585E-2,-1.865962E-2,-5.5434275E-2,-3.7346033E-3,2.3704741E-2,3.2180275E-3,-4.6907622E-2,4.2634774E-2,2.0957863E-2,3.5082873E-2,7.7109076E-2,3.2165516E-2,-1.4159972E-2,7.899621E-2,5.232429E-2,7.978027E-2,5.3675998E-2,7.68646E-3,1.04233444E-1],"split_indices":[0,5,4,0,1,0,0,1,4,4,0,1,5,8,7,2,2,1,0,7,6,1,8,4,8,1,8,7,6,6,5,0,0,0,0,0,0,0,0,0,0,0,0,0,0,0,0,0,0,0,0,0,0,0,0,0,0,0,0,0,0,0,0],"split_type":[0,0,0,0,0,0,0,0,0,0,0,0,0,0,0,0,0,0,0,0,0,0,0,0,0,0,0,0,0,0,0,0,0,0,0,0,0,0,0,0,0,0,0,0,0,0,0,0,0,0,0,0,0,0,0,0,0,0,0,0,0,0,0],"sum_hessian":[1.879E3,9.88E2,8.91E2,3.87E2,6.01E2,4.33E2,4.58E2,2.88E2,9.9E1,1.18E2,4.83E2,1.97E2,2.36E2,2.92E2,1.66E2,1.68E2,1.2E2,2.5E1,7.4E1,2.3E1,9.5E1,1.56E2,3.27E2,1.39E2,5.8E1,2.07E2,2.9E1,7.4E1,2.18E2,1.24E2,4.2E1,6.9E1,9.9E1,1.16E2,4E0,6E0,1.9E1,5.4E1,2E1,1.6E1,7E0,4E0,9.1E1,7E1,8.6E1,2.72E2,5.5E1,1.8E1,1.21E2,5.1E1,7E0,8E1,1.27E2,1.2E1,1.7E1,6.5E1,9E0,7.7E1,1.41E2,8.7E1,3.7E1,1E0,4.1E1],"tree_param":{"num_deleted":"0","num_feature":"10","num_nodes":"63","size_leaf_vector":"1"}},{"base_weights":[-1.9991776E-2,-7.6946265E-1,8.4838367E-1,-1.0847384E0,-3.7924576E-1,6.131174E-1,1.33934E0,-1.2278345E0,-5.3610516E-1,-9.391408E-1,-2.3550726E-1,4.051943E-1,7.9961187E-1,1.1634482E0,1.7449195E0,-1.2847283E0,-3.078793E-1,-3.449117E-1,-1.1606421E0,-2.7488104E-1,-1.1317405E0,4.5531232E-2,-4.7498378E-1,7.128642E-1,1.970766E-1,7.238668E-1,1.3073822E0,9.728365E-1,1.4722811E0,1.8395946E0,1.0936234E0,-7.8025065E-2,-5.491624E-2,-2.0720862E-2,3.4128174E-2,-3.3831228E-2,-5.254846E-3,-6.674778E-2,-2.898891E-2,-2.908416E-2,7.572496E-3,-6.514442E-2,-1.7093029E-2,9.580522E-3,-3.139754E-2,-2.7635882E-2,-5.482649E-4,3.0854613E-2,5.6367457E-2,-1.2693188E-2,1.367329E-2,6.1331935E-2,3.0394582E-2,4.2651508E-2,7.388614E-2,1.9102147E-2,5.3388234E-2,5.5801965E-2,8.265926E-2,6.822834E-2,9.875891E-2,6.154694E-2,1.12796305E-2],"categories":[],"categories_nodes":[],"categories_segments":[],"categories_sizes":[],"default_left":[0,0,0,0,0,0,0,0,0,0,0,0,0,0,0,0,0,0,0,0,0,0,0,0,0,0,0,0,0,0,0,0,0,0,0,0,0,0,0,0,0,0,0,0,0,0,0,0,0,0,0,0,0,0,0,0,0,0,0,0,0,0,0],"id":14,"left_children":[1,3,5,7,9,11,13,15,17,19,21,23,25,27,29,31,33,35,37,39,41,43,45,47,49,51,53,55,57,59,61,-1,-1,-1,-1,-1,-1,-1,-1,-1,-1,-1,-1,-1,-1,-1,-1,-1,-1,-1,-1,-1,-1,-1,-1,-1,-1,-1,-1,-1,-1,-1,-1],"loss_changes":[1.222246E3,1.23598755E2,9.966864E1,4.307025E1,3.615509E1,2.2554123E1,1.8015839E1,2.268634E1,1.3570343E1,1.145903E1,2.4317692E1,1.7852383E1,1.09765625E1,1.0282288E1,3.1060638E0,1.961914E1,3.1318996E0,7.167905E0,1.959835E0,2.96568E0,9.152824E0,1.6550068E1,7.0275803E0,3.7899704E0,5.8909607E0,1.511441E1,1.757843E0,6.658516E0,2.9239502E0,1.8775635E0,1.2718306E0,0E0,0E0,0E0,0E0,0E0,0E0,0E0,0E0,0E0,0E0,0E0,0E0,0E0,0E0,0E0,0E0,0E0,0E0,0E0,0E0,0E0,0E0,0E0,0E0,0E0,0E0,0E0,0E0,0E0,0E0,0E0,0E0],"parents":[2147483647,0,0,1,1,2,2,3,3,4,4,5,5,6,6,7,7,8,8,9,9,10,10,11,11,12,12,13,13,14,14,15,15,16,16,17,17,18,18,19,19,20,20,21,21,22,22,23,23,24,24,25,25,26,26,27,27,28,28,29,29,30,30],"right_children":[2,4,6,8,10,12,14,16,18,20,22,24,26,28,30,32,34,36,38,40,42,44,46,48,50,52,54,56,58,60,62,-1,-1,-1,-1,-1,-1,-1,-1,-1,-1,-1,-1,-1,-1,-1,-1,-1,-1,-1,-1,-1,-1,-1,-1,-1,-1,-1,-1,-1,-1,-1,-1],"split_conditions":[-8.251202E0,3.1762492E-2,3.732294E-2,4.1688194E1,1.2571648E-3,-5.849145E0,4.5864815E-1,-9.911739E0,2.2453308E-1,1.371994E-1,1.6683197E-1,1.3200378E-1,5.3503853E1,1.71905E1,5.9347594E-1,3.5352512E1,-8.749847E0,4.438527E1,-1.1863015E1,3.9884934E0,1.794548E-1,1.6489677E1,5.006462E1,1.71905E1,-7.825578E0,1.06884E-1,1.5808813E1,1.368165E-1,6.108771E-2,1.0574554E-1,1.41676E-1,-7.8025065E-2,-5.491624E-2,-2.0720862E-2,3.4128174E-2,-3.3831228E-2,-5.254846E-3,-6.674778E-2,-2.898891E-2,-2.908416E-2,7.572496E-3,-6.514442E-2,-1.7093029E-2,9.580522E-3,-3.139754E-2,-2.7635882E-2,-5.482649E-4,3.0854613E-2,5.6367457E-2,-1.2693188E-2,1.367329E-2,6.1331935E-2,3.0394582E-2,4.2651508E-2,7.388614E-2,1.9102147E-2,5.3388234E-2,5.5801965E-2,8.265926E-2,6.822834E-2,9.875891E-2,6.154694E-2,1.12796305E-2],"split_indices":[0,3,4,5,4,0,0,0,1,1,1,1,5,8,3,5,0,5,0,7,1,8,5,8,0,1,8,3,4,4,4,0,0,0,0,0,0,0,0,0,0,0,0,0,0,0,0,0,0,0,0,0,0,0,0,0,0,0,0,0,0,0,0],"split_type":[0,0,0,0,0,0,0,0,0,0,0,0,0,0,0,0,0,0,0,0,0,0,0,0,0,0,0,0,0,0,0,0,0,0,0,0,0,0,0,0,0,0,0,0,0,0,0,0,0,0,0,0,0,0,0,0,0,0,0,0,0,0,0],"sum_hessian":[1.876E3,1.007E3,8.69E2,5.56E2,4.51E2,5.89E2,2.8E2,4.4E2,1.16E2,9.1E1,3.6E2,2.8E2,3.09E2,1.98E2,8.2E1,4.14E2,2.6E1,9E1,2.6E1,2.1E1,7E1,1.66E2,1.94E2,1.12E2,1.68E2,2.71E2,3.8E1,1.25E2,7.3E1,7E1,1.2E1,1.64E2,2.5E2,2.4E1,2E0,3.7E1,5.3E1,1.9E1,7E0,1.2E1,9E0,5.7E1,1.3E1,1.37E2,2.9E1,1.66E2,2.8E1,9.3E1,1.9E1,2.4E1,1.44E2,4.9E1,2.22E2,1.2E1,2.6E1,1.8E1,1.07E2,2.7E1,4.6E1,1.8E1,5.2E1,1E1,2E0],"tree_param":{"num_deleted":"0","num_feature":"10","num_nodes":"63","size_leaf_vector":"1"}},{"base_weights":[-7.843868E-3,-7.47397E-1,8.1676257E-1,-1.0911824E0,-4.6185598E-1,5.837864E-1,1.3386071E0,-1.2923782E0,-5.4296756E-1,1.4703235E-1,-5.676094E-1,4.1950384E-1,8.5318613E-1,1.4956425E0,1.0519792E0,-1.1103896E0,-1.5305325E0,-6.836523E-1,-1.0793639E-1,-4.7985452E-1,2.8518564E-1,-9.26784E-1,-4.1176727E-1,8.108597E-1,3.3869874E-1,7.6648366E-1,1.3906283E0,1.2443964E0,1.5925311E0,8.4715325E-1,1.574392E0,-7.432575E-2,-4.3043766E-2,-7.865681E-2,-4.1181546E-2,-6.7197345E-2,-2.7395388E-2,3.2990567E-2,-9.181831E-3,1.4831322E-2,-2.7825251E-2,3.7238207E-2,2.9593778E-3,-6.149515E-2,-3.7404347E-2,-6.971152E-3,-3.1858187E-2,3.0080575E-2,5.104754E-2,1.3246262E-2,4.317267E-2,3.5242792E-2,7.19427E-2,7.613905E-2,2.9309783E-2,2.0966744E-2,7.1325965E-2,7.1247354E-2,9.065582E-2,-2.8354926E-2,4.574488E-2,5.946665E-2,9.4879195E-2],"categories":[],"categories_nodes":[],"categories_segments":[],"categories_sizes":[],"default_left":[0,0,0,0,0,0,0,0,0,0,0,0,0,0,0,0,0,0,0,0,0,0,0,0,0,0,0,0,0,0,0,0,0,0,0,0,0,0,0,0,0,0,0,0,0,0,0,0,0,0,0,0,0,0,0,0,0,0,0,0,0,0,0],"id":15,"left_children":[1,3,5,7,9,11,13,15,17,19,21,23,25,27,29,31,33,35,37,39,41,43,45,47,49,51,53,55,57,59,61,-1,-1,-1,-1,-1,-1,-1,-1,-1,-1,-1,-1,-1,-1,-1,-1,-1,-1,-1,-1,-1,-1,-1,-1,-1,-1,-1,-1,-1,-1,-1,-1],"loss_changes":[1.1440609E3,9.6581055E1,1.0705762E2,4.8712036E1,3.4983948E1,2.686055E1,1.07146E1,1.2473145E1,7.3928795E0,7.151973E0,2.5478638E1,1.1868805E1,9.744736E0,2.2538757E0,9.366615E0,1.6457672E1,2.8905334E0,7.5097275E0,1.9228446E0,1.0578389E0,6.9147973E0,6.609062E0,1.9800041E1,2.2432594E0,1.2159409E1,7.3560257E0,2.402897E0,7.3657303E0,1.9263306E0,7.6086006E0,1.1032333E0,0E0,0E0,0E0,0E0,0E0,0E0,0E0,0E0,0E0,0E0,0E0,0E0,0E0,0E0,0E0,0E0,0E0,0E0,0E0,0E0,0E0,0E0,0E0,0E0,0E0,0E0,0E0,0E0,0E0,0E0,0E0,0E0],"parents":[2147483647,0,0,1,1,2,2,3,3,4,4,5,5,6,6,7,7,8,8,9,9,10,10,11,11,12,12,13,13,14,14,15,15,16,16,17,17,18,18,19,19,20,20,21,21,22,22,23,23,24,24,25,25,26,26,27,27,28,28,29,29,30,30],"right_children":[2,4,6,8,10,12,14,16,18,20,22,24,26,28,30,32,34,36,38,40,42,44,46,48,50,52,54,56,58,60,62,-1,-1,-1,-1,-1,-1,-1,-1,-1,-1,-1,-1,-1,-1,-1,-1,-1,-1,-1,-1,-1,-1,-1,-1,-1,-1,-1,-1,-1,-1,-1,-1],"split_conditions":[-8.251202E0,3.8721718E1,4.1393813E-2,-1.0292478E1,1.4247894E-1,-4.795286E0,2.4302553E1,2.2283936E-1,-9.127706E0,4.8069624E-4,1.762171E-3,1.1603165E-1,4.9128313E0,-1.6882125E0,4.9163326E1,6.382326E-1,-1.0998984E1,5.0479877E-1,2.9666817E1,1.0204697E-1,1.2701797E-1,1.6404724E-1,1.8300247E-1,1E0,5.3372276E1,-3.3705166E-1,3.921694E-2,3.177654E1,4.5842686E0,-6.7551622E0,6.294717E-2,-7.432575E-2,-4.3043766E-2,-7.865681E-2,-4.1181546E-2,-6.7197345E-2,-2.7395388E-2,3.2990567E-2,-9.181831E-3,1.4831322E-2,-2.7825251E-2,3.7238207E-2,2.9593778E-3,-6.149515E-2,-3.7404347E-2,-6.971152E-3,-3.1858187E-2,3.0080575E-2,5.104754E-2,1.3246262E-2,4.317267E-2,3.5242792E-2,7.19427E-2,7.613905E-2,2.9309783E-2,2.0966744E-2,7.1325965E-2,7.1247354E-2,9.065582E-2,-2.8354926E-2,4.574488E-2,5.946665E-2,9.4879195E-2],"split_indices":[0,5,4,0,1,0,6,1,0,4,4,1,7,0,5,2,0,2,5,1,1,1,1,9,5,0,4,5,7,0,4,0,0,0,0,0,0,0,0,0,0,0,0,0,0,0,0,0,0,0,0,0,0,0,0,0,0,0,0,0,0,0,0],"split_type":[0,0,0,0,0,0,0,0,0,0,0,0,0,0,0,0,0,0,0,0,0,0,0,0,0,0,0,0,0,0,0,0,0,0,0,0,0,0,0,0,0,0,0,0,0,0,0,0,0,0,0,0,0,0,0,0,0,0,0,0,0,0,0],"sum_hessian":[1.874E3,9.88E2,8.86E2,4.47E2,5.41E2,6.14E2,2.72E2,3.26E2,1.21E2,8E1,4.61E2,3.83E2,2.31E2,1.73E2,9.9E1,1.88E2,1.38E2,9.1E1,3E1,1.4E1,6.6E1,1.38E2,3.23E2,6.4E1,3.19E2,2.01E2,3E1,5.2E1,1.21E2,7.3E1,2.6E1,7.3E1,1.15E2,1.29E2,9E0,1.4E1,7.7E1,2E0,2.8E1,1E0,1.3E1,2.1E1,4.5E1,4.9E1,8.9E1,1.47E2,1.76E2,3.4E1,3E1,2.81E2,3.8E1,1.86E2,1.5E1,2.5E1,5E0,1E1,4.2E1,7.3E1,4.8E1,3E0,7E1,1.4E1,1.2E1],"tree_param":{"num_deleted":"0","num_feature":"10","num_nodes":"63","size_leaf_vector":"1"}},{"base_weights":[1.6665205E-2,-6.849405E-1,7.6628584E-1,-1.0041852E0,-3.9433497E-1,4.9897286E-1,1.1628747E0,-1.1277609E0,-4.6371946E-1,-4.8910236E-1,9.471211E-2,8.894743E-1,3.8241076E-1,1.1168294E0,1.1494694E-1,-1.3270949E0,-9.697647E-1,-9.399622E-1,-2.6420677E-1,-5.453829E-1,1.8573625E-1,-6.916218E-2,1.882386E-1,1.4517123E0,7.9708844E-1,2.098858E-1,5.705098E-1,1.0097781E0,1.4438739E0,-6.905424E-2,2.513327E-3,-5.7675816E-2,-3.130408E-2,-2.2268496E-2,-6.1999954E-2,-9.0912795E-3,-5.834935E-2,-2.321214E-2,-4.8992958E-2,1.4914403E-2,-1.37462905E-2,1.4243798E-2,-2.1313427E-2,4.0663745E-2,7.983759E-2,-1.5916483E-2,4.106831E-2,2.1024017E-2,1.966375E-3,2.3230975E-2,6.100092E-2,4.2117853E-2,6.469952E-2,7.7915624E-2,4.5395885E-2],"categories":[],"categories_nodes":[],"categories_segments":[],"categories_sizes":[],"default_left":[0,0,0,0,0,0,0,0,0,0,0,0,0,0,0,0,0,0,0,0,0,0,0,0,0,0,0,0,0,0,0,0,0,0,0,0,0,0,0,0,0,0,0,0,0,0,0,0,0,0,0,0,0,0,0],"id":16,"left_children":[1,3,5,7,9,11,13,15,17,19,21,23,25,27,-1,29,31,33,35,37,39,-1,41,43,45,47,49,51,53,-1,-1,-1,-1,-1,-1,-1,-1,-1,-1,-1,-1,-1,-1,-1,-1,-1,-1,-1,-1,-1,-1,-1,-1,-1,-1],"loss_changes":[9.6930286E2,8.792514E1,9.3877625E1,2.9732208E1,2.3219185E1,2.3966293E1,1.6159668E1,1.0302795E1,7.923073E0,1.6015038E1,1.15950775E1,5.179878E0,1.3282845E1,1.0655609E1,0E0,1.196759E1,1.2476639E1,3.1576385E0,4.3988805E0,1.3188194E1,1.7930024E0,0E0,4.7534122E0,1.8297958E-1,3.1590118E0,7.777809E0,1.2982162E1,1.1471954E1,3.6759186E0,0E0,0E0,0E0,0E0,0E0,0E0,0E0,0E0,0E0,0E0,0E0,0E0,0E0,0E0,0E0,0E0,0E0,0E0,0E0,0E0,0E0,0E0,0E0,0E0,0E0,0E0],"parents":[2147483647,0,0,1,1,2,2,3,3,4,4,5,5,6,6,7,7,8,8,9,9,10,10,11,11,12,12,13,13,15,15,16,16,17,17,18,18,19,19,20,20,22,22,23,23,24,24,25,25,26,26,27,27,28,28],"right_children":[2,4,6,8,10,12,14,16,18,20,22,24,26,28,-1,30,32,34,36,38,40,-1,42,44,46,48,50,52,54,-1,-1,-1,-1,-1,-1,-1,-1,-1,-1,-1,-1,-1,-1,-1,-1,-1,-1,-1,-1,-1,-1,-1,-1,-1,-1],"split_conditions":[-8.251202E0,2.5227703E-2,2.7440604E-2,4.173096E1,4.9982197E1,1.1603165E-1,2.2164713E1,3.5352512E1,-1.2182615E1,4.7595034E0,4.8069624E-4,9.469223E-2,-6.0054903E0,8.459307E-1,1.1494694E-1,-9.940805E0,-1.1541288E1,2.0571518E-1,1.5309434E1,1.5870181E1,1.646347E-1,-6.916218E-2,1.683486E1,5.362744E-3,6.258163E-4,1.4102936E-1,5.383747E1,1.728117E1,5.5440295E-1,-6.905424E-2,2.513327E-3,-5.7675816E-2,-3.130408E-2,-2.2268496E-2,-6.1999954E-2,-9.0912795E-3,-5.834935E-2,-2.321214E-2,-4.8992958E-2,1.4914403E-2,-1.37462905E-2,1.4243798E-2,-2.1313427E-2,4.0663745E-2,7.983759E-2,-1.5916483E-2,4.106831E-2,2.1024017E-2,1.966375E-3,2.3230975E-2,6.100092E-2,4.2117853E-2,6.469952E-2,7.7915624E-2,4.5395885E-2],"split_indices":[0,3,4,5,5,1,8,5,0,7,4,1,0,0,0,0,0,1,8,8,1,0,8,4,4,1,5,8,3,0,0,0,0,0,0,0,0,0,0,0,0,0,0,0,0,0,0,0,0,0,0,0,0,0,0],"split_type":[0,0,0,0,0,0,0,0,0,0,0,0,0,0,0,0,0,0,0,0,0,0,0,0,0,0,0,0,0,0,0,0,0,0,0,0,0,0,0,0,0,0,0,0,0,0,0,0,0,0,0,0,0,0,0],"sum_hessian":[1.841E3,9.51E2,8.9E2,4.52E2,4.99E2,5.33E2,3.57E2,3.67E2,8.5E1,4.18E2,8.1E1,1.21E2,4.12E2,3.45E2,1.2E1,1.59E2,2.08E2,2.4E1,6.1E1,3.86E2,3.2E1,4E0,7.7E1,1.5E1,1.06E2,2.16E2,1.96E2,2.63E2,8.2E1,1.53E2,6E0,1.34E2,7.4E1,1E1,1.4E1,5.7E1,4E0,3.27E2,5.9E1,2.6E1,6E0,6.7E1,1E1,4E0,1.1E1,2E0,1.04E2,9.6E1,1.2E2,1.7E2,2.6E1,1.68E2,9.5E1,6.6E1,1.6E1],"tree_param":{"num_deleted":"0","num_feature":"10","num_nodes":"55","size_leaf_vector":"1"}},{"base_weights":[-7.6118666E-3,-6.5174913E-1,7.240004E-1,-9.309885E-1,-3.6430764E-1,5.318381E-1,1.2140398E0,-1.1682315E0,-5.6323284E-1,-5.2868235E-1,-1.18816674E-1,3.06608E-1,7.0403016E-1,1.1150914E0,1.8827013E0,-1.1292937E0,-1.7960966E0,-1.0089881E0,-4.2553365E-1,-6.2360084E-1,-5.680479E-2,-1.1619936E0,-5.681794E-2,3.2247964E-1,-4.206898E-2,8.8406056E-1,5.385268E-1,-2.229619E-2,1.1534761E0,1.9417169E0,3.5216134E-2,-6.955784E-2,-5.1182788E-2,-9.530597E-2,-3.419788E-2,-5.2718278E-2,2.582485E-2,-1.7461894E-2,-4.442383E-2,-2.8096622E-2,-5.9452027E-2,3.5675683E-3,-3.6927175E-2,-2.606752E-2,-7.267985E-2,-4.30332E-2,1.6945744E-3,1.3083892E-2,2.9911816E-2,3.3609323E-2,5.8554083E-2,2.074902E-2,5.7342876E-2,-2.362218E-2,2.7298106E-2,6.238475E-2,4.153954E-2,2.8377427E-2,9.8579586E-2],"categories":[],"categories_nodes":[],"categories_segments":[],"categories_sizes":[],"default_left":[0,0,0,0,0,0,0,0,0,0,0,0,0,0,0,0,0,0,0,0,0,0,0,0,0,0,0,0,0,0,0,0,0,0,0,0,0,0,0,0,0,0,0,0,0,0,0,0,0,0,0,0,0,0,0,0,0,0,0],"id":17,"left_children":[1,3,5,7,9,11,13,15,17,19,21,23,25,27,29,31,33,35,37,39,41,43,45,47,-1,49,51,53,55,57,-1,-1,-1,-1,-1,-1,-1,-1,-1,-1,-1,-1,-1,-1,-1,-1,-1,-1,-1,-1,-1,-1,-1,-1,-1,-1,-1,-1,-1],"loss_changes":[8.746568E2,7.8882355E1,8.1185486E1,4.296573E1,1.9629211E1,2.4062195E1,1.4044373E1,5.3793335E0,1.1723911E1,1.3043228E1,1.2675083E1,5.245512E0,1.0071579E1,9.412231E0,7.1868134E-1,6.5427856E0,6.54068E-1,3.7288094E0,5.0937557E0,7.805191E0,4.421147E0,1.2971163E0,1.3664538E1,4.370413E0,0E0,9.4292755E0,1.3578449E1,2.304336E0,5.287262E0,3.0509949E-2,0E0,0E0,0E0,0E0,0E0,0E0,0E0,0E0,0E0,0E0,0E0,0E0,0E0,0E0,0E0,0E0,0E0,0E0,0E0,0E0,0E0,0E0,0E0,0E0,0E0,0E0,0E0,0E0,0E0],"parents":[2147483647,0,0,1,1,2,2,3,3,4,4,5,5,6,6,7,7,8,8,9,9,10,10,11,11,12,12,13,13,14,14,15,15,16,16,17,17,18,18,19,19,20,20,21,21,22,22,23,23,25,25,26,26,27,27,28,28,29,29],"right_children":[2,4,6,8,10,12,14,16,18,20,22,24,26,28,30,32,34,36,38,40,42,44,46,48,-1,50,52,54,56,58,-1,-1,-1,-1,-1,-1,-1,-1,-1,-1,-1,-1,-1,-1,-1,-1,-1,-1,-1,-1,-1,-1,-1,-1,-1,-1,-1,-1,-1],"split_conditions":[-8.251202E0,3.956987E1,4.536143E-2,-1.0713808E1,4.6117157E1,8.3822105E-3,1.9738651E1,2.9709555E1,1.4482768E-3,4.2288275E0,6.449584E-1,2.0814823E1,2.4751654E1,-6.1255827E0,2.5274265E1,6.2597585E-1,1.1689433E1,2.8691263E1,1.3625311E1,1.6152353E1,1.6937801E1,4.817867E1,-1.2114016E1,5.024048E1,-4.206898E-2,1.4072723E1,5.383747E1,1.368165E-1,4.816095E-1,-4.955292E0,3.5216134E-2,-6.955784E-2,-5.1182788E-2,-9.530597E-2,-3.419788E-2,-5.2718278E-2,2.582485E-2,-1.7461894E-2,-4.442383E-2,-2.8096622E-2,-5.9452027E-2,3.5675683E-3,-3.6927175E-2,-2.606752E-2,-7.267985E-2,-4.30332E-2,1.6945744E-3,1.3083892E-2,2.9911816E-2,3.3609323E-2,5.8554083E-2,2.074902E-2,5.7342876E-2,-2.362218E-2,2.7298106E-2,6.238475E-2,4.153954E-2,2.8377427E-2,9.8579586E-2],"split_indices":[0,5,4,0,5,4,8,6,4,7,2,8,6,0,6,2,8,6,8,8,8,5,0,5,0,8,5,3,3,0,0,0,0,0,0,0,0,0,0,0,0,0,0,0,0,0,0,0,0,0,0,0,0,0,0,0,0,0,0],"split_type":[0,0,0,0,0,0,0,0,0,0,0,0,0,0,0,0,0,0,0,0,0,0,0,0,0,0,0,0,0,0,0,0,0,0,0,0,0,0,0,0,0,0,0,0,0,0,0,0,0,0,0,0,0,0,0,0,0,0,0],"sum_hessian":[1.854E3,9.86E2,8.68E2,4.99E2,4.87E2,6.25E2,2.43E2,3.02E2,1.97E2,2.91E2,1.96E2,2.72E2,3.53E2,2.14E2,2.9E1,2.87E2,1.5E1,4.5E1,1.52E2,2.42E2,4.9E1,1E1,1.86E2,2.69E2,3E0,1.67E2,1.86E2,7E0,2.07E2,2.7E1,2E0,7.9E1,2.08E2,1.3E1,2E0,4.4E1,1E0,1.32E2,2E1,2.2E2,2.2E1,4.2E1,7E0,4E0,6E0,1.8E1,1.68E2,2.22E2,4.7E1,9.8E1,6.9E1,1.56E2,3E1,4E0,3E0,1.58E2,4.9E1,1E0,2.6E1],"tree_param":{"num_deleted":"0","num_feature":"10","num_nodes":"59","size_leaf_vector":"1"}},{"base_weights":[1.0965751E-2,-6.743236E-1,6.69804E-1,-1.0466591E0,-4.6598458E-1,4.2256624E-1,1.0692285E0,-1.1305035E0,-3.9206356E-1,-8.882754E-1,-3.5014534E-1,2.286874E-1,6.5915686E-1,9.7014755E-1,1.7373971E0,-1.0143398E0,-1.4713604E0,-4.7483873E-1,1.4233963E-1,-4.6194062E-1,-1.0719699E0,-5.315153E-1,-5.2687824E-2,4.9469864E-1,7.485947E-2,1.069753E0,5.642784E-1,8.049702E-1,1.1917626E0,1.07731104E-1,1.4875293E0,-5.905543E-2,-3.984482E-2,-7.482899E-2,-1.9622803E-2,-3.6058798E-3,-2.9798958E-2,9.4468E-4,8.162506E-3,-6.3729994E-2,-1.4052098E-2,-3.2889783E-2,-6.085036E-2,-2.1323463E-2,-5.197335E-2,-2.6191233E-2,5.532895E-3,1.30826505E-2,3.1072145E-2,4.852498E-3,-5.433328E-2,1.8707454E-2,5.883894E-2,2.3875963E-2,5.1940728E-2,3.1021988E-2,5.5938717E-2,6.413808E-2,4.7178563E-2,5.3502362E-2,9.190667E-2],"categories":[],"categories_nodes":[],"categories_segments":[],"categories_sizes":[],"default_left":[0,0,0,0,0,0,0,0,0,0,0,0,0,0,0,0,0,0,0,0,0,0,0,0,0,0,0,0,0,0,0,0,0,0,0,0,0,0,0,0,0,0,0,0,0,0,0,0,0,0,0,0,0,0,0,0,0,0,0,0,0],"id":18,"left_children":[1,3,5,7,9,11,13,15,17,19,21,23,25,27,29,31,33,35,37,39,41,43,45,47,49,51,53,55,57,-1,59,-1,-1,-1,-1,-1,-1,-1,-1,-1,-1,-1,-1,-1,-1,-1,-1,-1,-1,-1,-1,-1,-1,-1,-1,-1,-1,-1,-1,-1,-1],"loss_changes":[8.492619E2,7.103366E1,9.4252106E1,1.7668549E1,2.869725E1,2.7095993E1,2.2544708E1,1.0069366E1,1.7927656E0,9.450867E0,2.5166584E1,1.3384714E1,9.797813E0,1.0791107E1,1.5904846E0,7.0728607E0,1.3717346E0,1.6157374E0,1.2403525E-2,5.5221415E0,4.4856873E0,1.5030617E1,1.3756522E1,3.3818607E0,5.492397E0,3.2076302E0,8.520248E0,1.0134361E1,1.838623E0,0E0,2.7169724E0,0E0,0E0,0E0,0E0,0E0,0E0,0E0,0E0,0E0,0E0,0E0,0E0,0E0,0E0,0E0,0E0,0E0,0E0,0E0,0E0,0E0,0E0,0E0,0E0,0E0,0E0,0E0,0E0,0E0,0E0],"parents":[2147483647,0,0,1,1,2,2,3,3,4,4,5,5,6,6,7,7,8,8,9,9,10,10,11,11,12,12,13,13,14,14,15,15,16,16,17,17,18,18,19,19,20,20,21,21,22,22,23,23,24,24,25,25,26,26,27,27,28,28,30,30],"right_children":[2,4,6,8,10,12,14,16,18,20,22,24,26,28,30,32,34,36,38,40,42,44,46,48,50,52,54,56,58,-1,60,-1,-1,-1,-1,-1,-1,-1,-1,-1,-1,-1,-1,-1,-1,-1,-1,-1,-1,-1,-1,-1,-1,-1,-1,-1,-1,-1,-1,-1,-1],"split_conditions":[-8.805825E0,3.7359016E1,2.7440604E-2,-9.691983E0,-1.1810626E1,-5.746336E0,1.9738651E1,2.3672867E-1,-8.997565E0,2.0404816E-1,2.9561426E1,1.3200378E-1,1.0907364E-1,-1.0360523E0,2.1458271E1,3.3355014E0,-1.0436943E1,3.37318E1,-8.962824E0,3.2497075E-5,2.9094645E1,1.6489677E1,4.513179E1,4.153817E0,2.2164713E1,1.2064519E1,5.310029E1,1.6597557E1,1.1471939E-1,1.07731104E-1,8.469559E-2,-5.905543E-2,-3.984482E-2,-7.482899E-2,-1.9622803E-2,-3.6058798E-3,-2.9798958E-2,9.4468E-4,8.162506E-3,-6.3729994E-2,-1.4052098E-2,-3.2889783E-2,-6.085036E-2,-2.1323463E-2,-5.197335E-2,-2.6191233E-2,5.532895E-3,1.30826505E-2,3.1072145E-2,4.852498E-3,-5.433328E-2,1.8707454E-2,5.883894E-2,2.3875963E-2,5.1940728E-2,3.1021988E-2,5.5938717E-2,6.413808E-2,4.7178563E-2,5.3502362E-2,9.190667E-2],"split_indices":[0,5,4,0,0,0,8,1,0,1,6,1,1,0,6,7,0,5,0,4,6,8,5,7,8,8,5,8,1,0,4,0,0,0,0,0,0,0,0,0,0,0,0,0,0,0,0,0,0,0,0,0,0,0,0,0,0,0,0,0,0],"split_type":[0,0,0,0,0,0,0,0,0,0,0,0,0,0,0,0,0,0,0,0,0,0,0,0,0,0,0,0,0,0,0,0,0,0,0,0,0,0,0,0,0,0,0,0,0,0,0,0,0,0,0,0,0,0,0,0,0,0,0,0,0],"sum_hessian":[1.879E3,9.21E2,9.58E2,3.29E2,5.92E2,5.93E2,3.65E2,2.91E2,3.8E1,1.26E2,4.66E2,3.27E2,2.66E2,3.2E2,4.5E1,2.2E2,7.1E1,3.3E1,5E0,3.9E1,8.7E1,2.89E2,1.77E2,1.19E2,2.08E2,4.8E1,2.18E2,1.86E2,1.34E2,1.4E1,3.1E1,1.22E2,9.8E1,6.9E1,2E0,8E0,2.5E1,1E0,4E0,6E0,3.3E1,2.4E1,6.3E1,2.41E2,4.8E1,4.5E1,1.32E2,4.3E1,7.6E1,2.05E2,3E0,7E0,4.1E1,1.86E2,3.2E1,1.19E2,6.7E1,9.5E1,3.9E1,1.6E1,1.5E1],"tree_param":{"num_deleted":"0","num_feature":"10","num_nodes":"61","size_leaf_vector":"1"}},{"base_weights":[-7.2277146E-3,-5.7538694E-1,7.040118E-1,-8.4903836E-1,-2.4131969E-1,5.3595376E-1,1.1882178E0,-7.3574585E-1,-1.2250873E0,3.3027047E-1,-3.362205E-1,2.9887134E-1,7.2936493E-1,1.4032314E0,9.380223E-1,-9.971567E-1,-5.266018E-1,-1.3135331E0,-6.729585E-1,-1.2153011E-1,4.9871826E-1,-8.405455E-1,-2.1761645E-1,3.7523368E-1,-4.837348E-2,4.9302378E-1,9.4410497E-1,1.2818911E0,8.9736685E-2,5.0400513E-1,1.0667549E0,-5.586157E-2,-1.3772391E-2,-2.9373078E-2,-1.5892343E-3,-7.372214E-2,-5.2238353E-2,-1.416622E-2,-4.0985357E-2,2.245383E-2,-1.5181516E-2,1.25675425E-2,3.6306847E-2,-4.7842424E-2,-1.0165983E-2,-2.7589161E-2,-5.3350655E-3,1.1608682E-2,2.8302247E-2,-2.6758233E-2,4.1704434E-3,2.75374E-2,-1.3961742E-2,4.278606E-2,8.146979E-2,4.874338E-2,6.783775E-2,3.7544873E-2,-1.1906597E-2,1.9394381E-2,5.445174E-2],"categories":[],"categories_nodes":[],"categories_segments":[],"categories_sizes":[],"default_left":[0,0,0,0,0,0,0,0,0,0,0,0,0,0,0,0,0,0,0,0,0,0,0,0,0,0,0,0,0,0,0,0,0,0,0,0,0,0,0,0,0,0,0,0,0,0,0,0,0,0,0,0,0,0,0,0,0,0,0,0,0],"id":19,"left_children":[1,3,5,7,9,11,13,15,17,19,21,23,25,27,29,31,33,35,37,39,41,43,45,47,49,51,53,55,-1,57,59,-1,-1,-1,-1,-1,-1,-1,-1,-1,-1,-1,-1,-1,-1,-1,-1,-1,-1,-1,-1,-1,-1,-1,-1,-1,-1,-1,-1,-1,-1],"loss_changes":[7.5162195E2,9.432126E1,6.6578705E1,2.3297455E1,2.5443161E1,2.7982452E1,1.0088348E1,2.347615E1,5.4644165E0,5.159631E0,2.380289E1,7.389717E0,1.6688675E1,3.0198975E0,5.105438E0,1.650409E1,7.389473E0,3.259964E0,9.1132164E-1,2.1105978E0,2.574028E0,5.437912E0,1.2024039E1,6.0923996E0,3.3163126E0,7.420006E0,9.265747E0,7.2302246E-1,0E0,4.759512E0,7.422104E-1,0E0,0E0,0E0,0E0,0E0,0E0,0E0,0E0,0E0,0E0,0E0,0E0,0E0,0E0,0E0,0E0,0E0,0E0,0E0,0E0,0E0,0E0,0E0,0E0,0E0,0E0,0E0,0E0,0E0,0E0],"parents":[2147483647,0,0,1,1,2,2,3,3,4,4,5,5,6,6,7,7,8,8,9,9,10,10,11,11,12,12,13,13,14,14,15,15,16,16,17,17,18,18,19,19,20,20,21,21,22,22,23,23,24,24,25,25,26,26,27,27,29,29,30,30],"right_children":[2,4,6,8,10,12,14,16,18,20,22,24,26,28,30,32,34,36,38,40,42,44,46,48,50,52,54,56,-1,58,60,-1,-1,-1,-1,-1,-1,-1,-1,-1,-1,-1,-1,-1,-1,-1,-1,-1,-1,-1,-1,-1,-1,-1,-1,-1,-1,-1,-1,-1,-1],"split_conditions":[-7.825578E0,3.2221105E-2,-1.6882125E0,2.3672867E-1,1.3322449E-1,1.4198927E1,4.43369E-1,3.348293E0,-1.12687025E1,7.97178E-4,1.3250962E-3,2.7443922E1,1.6774332E-2,1.854146E1,1.4121477E1,-1.01210165E1,3.282116E1,1.1603712E1,3.126784E0,1.0725021E-1,1E0,1.794548E-1,2.5639118E1,2.1346186E1,1.2536191E1,1.6756439E-1,2.0293585E1,4.1393813E-2,8.9736685E-2,6.494403E-1,-1.4788986E0,-5.586157E-2,-1.3772391E-2,-2.9373078E-2,-1.5892343E-3,-7.372214E-2,-5.2238353E-2,-1.416622E-2,-4.0985357E-2,2.245383E-2,-1.5181516E-2,1.25675425E-2,3.6306847E-2,-4.7842424E-2,-1.0165983E-2,-2.7589161E-2,-5.3350655E-3,1.1608682E-2,2.8302247E-2,-2.6758233E-2,4.1704434E-3,2.75374E-2,-1.3961742E-2,4.278606E-2,8.146979E-2,4.874338E-2,6.783775E-2,3.7544873E-2,-1.1906597E-2,1.9394381E-2,5.445174E-2],"split_indices":[0,3,0,1,1,8,3,7,0,4,4,6,4,8,8,0,6,8,7,1,9,1,6,6,8,1,8,4,0,3,0,0,0,0,0,0,0,0,0,0,0,0,0,0,0,0,0,0,0,0,0,0,0,0,0,0,0,0,0,0,0],"split_type":[0,0,0,0,0,0,0,0,0,0,0,0,0,0,0,0,0,0,0,0,0,0,0,0,0,0,0,0,0,0,0,0,0,0,0,0,0,0,0,0,0,0,0,0,0,0,0,0,0,0,0,0,0,0,0,0,0,0,0,0,0],"sum_hessian":[1.858E3,1.033E3,8.25E2,5.67E2,4.66E2,6.14E2,2.11E2,4.38E2,1.29E2,6.6E1,4E2,2.77E2,3.37E2,1.11E2,1E2,1.93E2,2.45E2,1.1E2,1.9E1,1.8E1,4.8E1,7.5E1,3.25E2,2.27E2,5E1,1.62E2,1.75E2,8.8E1,2.3E1,2.4E1,7.6E1,1.65E2,2.8E1,2.18E2,2.7E1,6.6E1,4.4E1,6E0,1.3E1,4E0,1.4E1,2.4E1,2.4E1,6.3E1,1.2E1,8E1,2.45E2,1.31E2,9.6E1,1E1,4E1,1.51E2,1.1E1,1.57E2,1.8E1,2E1,6.8E1,1.8E1,6E0,3E0,7.3E1],"tree_param":{"num_deleted":"0","num_feature":"10","num_nodes":"61","size_leaf_vector":"1"}},{"base_weights":[5.2122574E-4,-5.5732256E-1,6.6348416E-1,-7.9185724E-1,-2.804545E-1,4.7428888E-1,1.0023782E0,-8.981793E-1,-3.2662475E-1,2.9022843E-1,-3.5778895E-1,7.929203E-1,3.8120985E-1,9.610324E-1,9.349324E-2,-1.2823163E0,-7.8960574E-1,-1.0105511E-1,-6.1374545E-1,-9.187839E-1,3.508977E-1,-2.644733E-1,-7.663973E-1,1.4442211E0,6.909772E-1,3.080593E-1,7.626409E-1,7.3697424E-1,1.0965824E0,-2.1070123E-3,-6.473336E-2,-3.054106E-2,-5.221613E-2,3.87596E-2,-8.038661E-3,-3.608043E-2,3.4961004E-2,-5.582998E-2,-1.3078815E-2,2.7244002E-2,5.678793E-3,-7.575486E-3,-3.6642965E-2,-2.5072336E-2,-5.7168704E-2,7.455092E-2,1.8556548E-2,3.5784792E-2,-2.1460883E-2,-8.239545E-4,1.7235953E-2,9.8545E-3,4.868042E-2,1.1373426E-2,4.4535752E-2,6.152716E-2,3.628662E-2],"categories":[],"categories_nodes":[],"categories_segments":[],"categories_sizes":[],"default_left":[0,0,0,0,0,0,0,0,0,0,0,0,0,0,0,0,0,0,0,0,0,0,0,0,0,0,0,0,0,0,0,0,0,0,0,0,0,0,0,0,0,0,0,0,0,0,0,0,0,0,0,0,0,0,0,0,0],"id":20,"left_children":[1,3,5,7,9,11,13,15,17,19,21,23,25,27,-1,29,31,33,35,37,39,41,43,45,47,49,51,53,55,-1,-1,-1,-1,-1,-1,-1,-1,-1,-1,-1,-1,-1,-1,-1,-1,-1,-1,-1,-1,-1,-1,-1,-1,-1,-1,-1,-1],"loss_changes":[7.000877E2,6.653125E1,5.49859E1,2.7208862E1,2.0978966E1,1.621717E1,9.285889E0,1.783908E1,6.7383776E0,4.5033417E0,1.569733E1,7.301529E0,1.18465805E1,8.212067E0,0E0,1.4465485E0,1.552861E1,3.2642999E0,7.0191116E0,9.7942114E-2,2.470108E0,1.7931467E1,7.1174355E0,2.5011444E-1,3.353054E0,4.3482666E0,8.040699E0,8.805546E0,8.198288E0,0E0,0E0,0E0,0E0,0E0,0E0,0E0,0E0,0E0,0E0,0E0,0E0,0E0,0E0,0E0,0E0,0E0,0E0,0E0,0E0,0E0,0E0,0E0,0E0,0E0,0E0,0E0,0E0],"parents":[2147483647,0,0,1,1,2,2,3,3,4,4,5,5,6,6,7,7,8,8,9,9,10,10,11,11,12,12,13,13,15,15,16,16,17,17,18,18,19,19,20,20,21,21,22,22,23,23,24,24,25,25,26,26,27,27,28,28],"right_children":[2,4,6,8,10,12,14,16,18,20,22,24,26,28,-1,30,32,34,36,38,40,42,44,46,48,50,52,54,56,-1,-1,-1,-1,-1,-1,-1,-1,-1,-1,-1,-1,-1,-1,-1,-1,-1,-1,-1,-1,-1,-1,-1,-1,-1,-1,-1,-1],"split_conditions":[-8.019935E0,3.662253E0,3.732294E-2,-9.940805E0,1.3322449E-1,1.1471939E-1,2.1807924E1,6.292885E-1,1.2640366E1,1.006917E1,1.5808813E1,9.383011E-2,5.2691105E1,-2.415259E0,9.349324E-2,8.715691E0,2.2146988E-1,3.13638E1,4.5749527E1,-1.3656724E1,1.05236694E-1,2.1871948E-1,1.5628052E-1,6.2552404E-1,3.611402E-2,2.1279282E-3,-6.66155E0,1.3554342E1,5.2171904E-1,-2.1070123E-3,-6.473336E-2,-3.054106E-2,-5.221613E-2,3.87596E-2,-8.038661E-3,-3.608043E-2,3.4961004E-2,-5.582998E-2,-1.3078815E-2,2.7244002E-2,5.678793E-3,-7.575486E-3,-3.6642965E-2,-2.5072336E-2,-5.7168704E-2,7.455092E-2,1.8556548E-2,3.5784792E-2,-2.1460883E-2,-8.239545E-4,1.7235953E-2,9.8545E-3,4.868042E-2,1.1373426E-2,4.4535752E-2,6.152716E-2,3.628662E-2],"split_indices":[0,7,4,0,1,1,8,2,8,8,8,1,5,0,0,8,1,5,5,0,3,1,1,0,4,4,0,8,3,0,0,0,0,0,0,0,0,0,0,0,0,0,0,0,0,0,0,0,0,0,0,0,0,0,0,0,0],"split_type":[0,0,0,0,0,0,0,0,0,0,0,0,0,0,0,0,0,0,0,0,0,0,0,0,0,0,0,0,0,0,0,0,0,0,0,0,0,0,0,0,0,0,0,0,0,0,0,0,0,0,0,0,0,0,0,0,0],"sum_hessian":[1.891E3,1.027E3,8.64E2,5.55E2,4.72E2,5.56E2,3.08E2,4.51E2,1.04E2,5.6E1,4.16E2,1.24E2,4.32E2,2.96E2,1.2E1,9.7E1,3.54E2,5.9E1,4.5E1,2E0,5.4E1,3.4E2,7.6E1,1.5E1,1.09E2,3.64E2,6.8E1,1.14E2,1.82E2,1E0,9.6E1,2.1E2,1.44E2,3E0,5.6E1,4.2E1,3E0,1E0,1E0,2.9E1,2.5E1,2.75E2,6.5E1,4.6E1,3E1,1.4E1,1E0,1.07E2,2E0,3.7E1,3.27E2,1.9E1,4.9E1,2.7E1,8.7E1,1.32E2,5E1],"tree_param":{"num_deleted":"0","num_feature":"10","num_nodes":"57","size_leaf_vector":"1"}},{"base_weights":[-3.921154E-3,-5.8818704E-1,5.445155E-1,-7.4512225E-1,-1.8646504E-1,2.788819E-1,8.278294E-1,-9.1737765E-1,-4.8051277E-1,-8.541E-2,-8.192279E-1,5.968492E-1,1.3209905E-1,6.595737E-1,1.0594673E0,-7.689487E-1,-1.082693E0,-2.920754E-1,-8.350503E-1,2.1923259E-2,-6.375927E-1,-3.405216E-1,-5.6107502E-2,3.2195446E-1,7.590618E-1,6.805977E-2,6.5815085E-1,4.9221566E-1,9.17019E-1,1.111405E0,5.5203927E-1,-5.7162352E-2,-3.0756427E-2,-6.374397E-2,-4.0381793E-2,-2.1573331E-2,-5.0473236E-3,-3.986075E-3,-4.5951415E-2,-5.1879175E-2,3.4576522E-3,-1.37639195E-2,-5.1316965E-2,7.03797E-3,-2.1269625E-2,1.00417165E-2,3.722008E-2,3.1564347E-2,5.2797653E-2,4.084884E-3,-4.9101338E-2,-2.216154E-3,5.977399E-2,2.2390055E-2,5.406929E-2,1.891271E-2,4.9088676E-2,4.8929755E-2,6.439027E-2,-1.3581944E-2,3.8746815E-2],"categories":[],"categories_nodes":[],"categories_segments":[],"categories_sizes":[],"default_left":[0,0,0,0,0,0,0,0,0,0,0,0,0,0,0,0,0,0,0,0,0,0,0,0,0,0,0,0,0,0,0,0,0,0,0,0,0,0,0,0,0,0,0,0,0,0,0,0,0,0,0,0,0,0,0,0,0,0,0,0,0],"id":21,"left_children":[1,3,5,7,9,11,13,15,17,19,21,23,25,27,29,31,33,35,37,39,41,43,-1,45,47,49,51,53,55,57,59,-1,-1,-1,-1,-1,-1,-1,-1,-1,-1,-1,-1,-1,-1,-1,-1,-1,-1,-1,-1,-1,-1,-1,-1,-1,-1,-1,-1,-1,-1],"loss_changes":[5.9760706E2,5.679007E1,7.216705E1,2.91409E1,1.6235718E1,2.3163887E1,1.7424286E1,8.786194E0,1.6992596E1,1.3112109E1,4.693262E0,6.7564697E0,1.1476494E1,1.1267883E1,4.499237E0,1.1387428E1,8.64415E0,4.4855328E0,5.57209E0,9.379242E0,4.7880163E0,6.7257917E-1,0E0,2.9205093E0,3.0510406E0,4.46245E0,1.401899E1,3.885765E0,3.3267136E0,2.8396149E0,3.8824105E0,0E0,0E0,0E0,0E0,0E0,0E0,0E0,0E0,0E0,0E0,0E0,0E0,0E0,0E0,0E0,0E0,0E0,0E0,0E0,0E0,0E0,0E0,0E0,0E0,0E0,0E0,0E0,0E0,0E0,0E0],"parents":[2147483647,0,0,1,1,2,2,3,3,4,4,5,5,6,6,7,7,8,8,9,9,10,10,11,11,12,12,13,13,14,14,15,15,16,16,17,17,18,18,19,19,20,20,21,21,23,23,24,24,25,25,26,26,27,27,28,28,29,29,30,30],"right_children":[2,4,6,8,10,12,14,16,18,20,22,24,26,28,30,32,34,36,38,40,42,44,-1,46,48,50,52,54,56,58,60,-1,-1,-1,-1,-1,-1,-1,-1,-1,-1,-1,-1,-1,-1,-1,-1,-1,-1,-1,-1,-1,-1,-1,-1,-1,-1,-1,-1,-1,-1],"split_conditions":[-8.8727455E0,4.3375866E1,-4.795286E0,-1.0768109E1,2.1762466E-1,1.2495041E-1,-1.587335E0,2.1871948E-1,1.3195415E1,1.6281773E1,3.0030258E1,4.303622E0,5.383747E1,4.797733E0,2.5989473E1,6.449584E-1,1.1565717E1,2.6523134E1,1.3685608E-1,3.19148E0,1.5376282E-1,1E0,-5.6107502E-2,4.896945E1,1.6783882E1,2.1807924E1,-6.891528E0,1.8085562E1,3.177654E1,4.5842686E0,1.4121477E1,-5.7162352E-2,-3.0756427E-2,-6.374397E-2,-4.0381793E-2,-2.1573331E-2,-5.0473236E-3,-3.986075E-3,-4.5951415E-2,-5.1879175E-2,3.4576522E-3,-1.37639195E-2,-5.1316965E-2,7.03797E-3,-2.1269625E-2,1.00417165E-2,3.722008E-2,3.1564347E-2,5.2797653E-2,4.084884E-3,-4.9101338E-2,-2.216154E-3,5.977399E-2,2.2390055E-2,5.406929E-2,1.891271E-2,4.9088676E-2,4.8929755E-2,6.439027E-2,-1.3581944E-2,3.8746815E-2],"split_indices":[0,5,0,0,1,1,0,1,8,8,6,7,5,7,6,2,8,6,1,7,1,9,0,5,8,8,0,8,5,7,8,0,0,0,0,0,0,0,0,0,0,0,0,0,0,0,0,0,0,0,0,0,0,0,0,0,0,0,0,0,0],"split_type":[0,0,0,0,0,0,0,0,0,0,0,0,0,0,0,0,0,0,0,0,0,0,0,0,0,0,0,0,0,0,0,0,0,0,0,0,0,0,0,0,0,0,0,0,0,0,0,0,0,0,0,0,0,0,0,0,0,0,0,0,0],"sum_hessian":[1.863E3,9.02E2,9.61E2,6.48E2,2.54E2,4.97E2,4.64E2,3.91E2,2.57E2,2.2E2,3.4E1,1.56E2,3.41E2,2.71E2,1.93E2,2.09E2,1.82E2,1.69E2,8.8E1,1.85E2,3.5E1,1.4E1,2E1,5.9E1,9.7E1,3.05E2,3.6E1,1.66E2,1.05E2,1.74E2,1.9E1,5.9E1,1.5E2,1.05E2,7.7E1,9.7E1,7.2E1,9E0,7.9E1,7E0,1.78E2,1.9E1,1.6E1,2E0,1.2E1,4.7E1,1.2E1,7E1,2.7E1,3.02E2,3E0,1.6E1,2E1,1.56E2,1E1,1.2E1,9.3E1,1.03E2,7.1E1,4E0,1.5E1],"tree_param":{"num_deleted":"0","num_feature":"10","num_nodes":"61","size_leaf_vector":"1"}},{"base_weights":[1.1173233E-2,-4.6750334E-1,6.642324E-1,-6.741664E-1,-1.5906128E-1,5.4862183E-1,9.8651344E-1,-5.6452435E-1,-1.032417E0,-3.183771E-1,1.3249543E-1,4.2215085E-1,8.1215626E-1,1.1154428E0,7.2565573E-1,-6.620236E-1,-1.544283E-1,-1.1317322E0,-5.824326E-1,2.7739054E-1,-4.2217484E-1,-5.682266E-1,1.8023658E-1,3.6340803E-1,7.308477E-1,2.675078E-1,9.3144083E-1,1.0250908E0,1.7290134E0,6.2385317E-2,5.871322E-1,-3.5271354E-2,-8.028931E-3,-6.524676E-2,-4.5111096E-3,-6.1984222E-2,-4.7086403E-2,-5.3821336E-2,-1.7149298E-2,2.1875754E-2,-5.673271E-3,-9.538876E-3,-3.5426512E-2,-6.107474E-2,1.6467027E-2,4.253626E-2,6.727037E-3,2.2956287E-2,5.383936E-3,2.6982209E-2,5.3922623E-2,4.2269076E-3,5.688856E-2,4.3136362E-2,8.700207E-2,5.5482604E-2,3.5229817E-2,1.729169E-2,8.9908496E-2,2.2860565E-3,3.63688E-2],"categories":[],"categories_nodes":[],"categories_segments":[],"categories_sizes":[],"default_left":[0,0,0,0,0,0,0,0,0,0,0,0,0,0,0,0,0,0,0,0,0,0,0,0,0,0,0,0,0,0,0,0,0,0,0,0,0,0,0,0,0,0,0,0,0,0,0,0,0,0,0,0,0,0,0,0,0,0,0,0,0],"id":22,"left_children":[1,3,5,7,9,11,13,15,17,19,21,23,25,27,29,31,33,35,37,39,41,43,45,47,49,51,53,55,57,-1,59,-1,-1,-1,-1,-1,-1,-1,-1,-1,-1,-1,-1,-1,-1,-1,-1,-1,-1,-1,-1,-1,-1,-1,-1,-1,-1,-1,-1,-1,-1],"loss_changes":[5.8019116E2,6.8162155E1,2.8707153E1,2.4595215E1,2.0061958E1,1.8988235E1,6.1187897E0,1.9609894E1,5.999695E0,1.7370283E1,5.220766E0,6.879097E0,1.1899872E1,5.7670746E0,4.4018936E0,8.548965E0,6.9737463E0,1.3144073E0,3.0610723E0,2.678239E0,1.5635155E1,6.2658086E0,4.2974916E0,8.101681E0,3.5387383E0,5.4769278E0,6.9997864E0,2.497406E0,9.0862274E-1,0E0,4.370655E0,0E0,0E0,0E0,0E0,0E0,0E0,0E0,0E0,0E0,0E0,0E0,0E0,0E0,0E0,0E0,0E0,0E0,0E0,0E0,0E0,0E0,0E0,0E0,0E0,0E0,0E0,0E0,0E0,0E0,0E0],"parents":[2147483647,0,0,1,1,2,2,3,3,4,4,5,5,6,6,7,7,8,8,9,9,10,10,11,11,12,12,13,13,14,14,15,15,16,16,17,17,18,18,19,19,20,20,21,21,22,22,23,23,24,24,25,25,26,26,27,27,28,28,30,30],"right_children":[2,4,6,8,10,12,14,16,18,20,22,24,26,28,30,32,34,36,38,40,42,44,46,48,50,52,54,56,58,-1,60,-1,-1,-1,-1,-1,-1,-1,-1,-1,-1,-1,-1,-1,-1,-1,-1,-1,-1,-1,-1,-1,-1,-1,-1,-1,-1,-1,-1,-1,-1],"split_conditions":[-7.3876076E0,3.980011E-2,-1.587335E0,2.3226929E-1,2.952552E1,5.097466E0,5.2171904E-1,4.398752E1,-1.12687025E1,1.3250351E-1,3.560144E0,5.2103806E1,1.4088105E1,4.896945E1,9.469223E-2,-9.604614E0,3.19148E0,1.1603712E1,3.521273E1,2.8346292E1,1.36964855E1,4.5749527E1,1.0796738E-1,4.521898E1,1.6188288E1,1E0,2.1807924E1,1.1603165E-1,-1.2802147E0,6.2385317E-2,1.4121477E1,-3.5271354E-2,-8.028931E-3,-6.524676E-2,-4.5111096E-3,-6.1984222E-2,-4.7086403E-2,-5.3821336E-2,-1.7149298E-2,2.1875754E-2,-5.673271E-3,-9.538876E-3,-3.5426512E-2,-6.107474E-2,1.6467027E-2,4.253626E-2,6.727037E-3,2.2956287E-2,5.383936E-3,2.6982209E-2,5.3922623E-2,4.2269076E-3,5.688856E-2,4.3136362E-2,8.700207E-2,5.5482604E-2,3.5229817E-2,1.729169E-2,8.9908496E-2,2.2860565E-3,3.63688E-2],"split_indices":[0,3,0,1,6,7,3,5,0,1,7,5,8,5,1,0,7,8,5,6,8,5,1,5,8,9,8,1,0,0,8,0,0,0,0,0,0,0,0,0,0,0,0,0,0,0,0,0,0,0,0,0,0,0,0,0,0,0,0,0,0],"split_type":[0,0,0,0,0,0,0,0,0,0,0,0,0,0,0,0,0,0,0,0,0,0,0,0,0,0,0,0,0,0,0,0,0,0,0,0,0,0,0,0,0,0,0,0,0,0,0,0,0,0,0,0,0,0,0,0,0,0,0,0,0],"sum_hessian":[1.854E3,1.07E3,7.84E2,6.4E2,4.3E2,5.79E2,2.05E2,4.92E2,1.48E2,2.78E2,1.52E2,3.93E2,1.86E2,1.35E2,7E1,3.97E2,9.5E1,1.2E2,2.8E1,4.1E1,2.37E2,9E0,1.43E2,3.32E2,6.1E1,3.4E1,1.52E2,1.2E2,1.5E1,1.3E1,5.7E1,3.65E2,3.2E1,4E0,9.1E1,7.3E1,4.7E1,8E0,2E1,2.9E1,1.2E1,1.32E2,1.05E2,5E0,4E0,8E0,1.35E2,2.41E2,9.1E1,4.1E1,2E1,2.9E1,5E0,1.42E2,1E1,9.3E1,2.7E1,1E0,1.4E1,1.2E1,4.5E1],"tree_param":{"num_deleted":"0","num_feature":"10","num_nodes":"61","size_leaf_vector":"1"}},{"base_weights":[7.866473E-3,-4.3266484E-1,5.510922E-1,1.63259E-1,-5.4095405E-1,3.7626225E-1,8.9695156E-1,-2.9484597E-1,3.547132E-1,-6.7865807E-1,-2.3291492E-1,1.132194E0,3.419685E-1,8.140795E-1,1.4429325E0,4.973034E-1,-3.9852154E-1,6.7074484E-1,2.0025317E-1,-5.897557E-1,-9.9240077E-1,-8.99356E-1,-1.3792774E-1,6.543645E-1,6.4522766E-2,-2.1056089E-1,3.8540006E-1,9.67517E-1,6.5783435E-1,1.5168449E0,2.3621125E-2,7.802675E-3,3.144575E-2,-2.6913062E-2,3.6639077E-4,5.4344814E-2,2.7756913E-2,1.35229025E-2,-1.52092865E-2,-5.3152204E-2,-2.6085189E-2,-5.811882E-2,-4.1140866E-2,-5.4738432E-2,5.3869316E-4,-4.198484E-3,-3.228527E-2,4.193246E-2,-1.5890706E-2,2.1239768E-3,-2.4623645E-2,2.0730304E-2,-3.53876E-3,5.253748E-2,4.05286E-2,-4.4379532E-2,3.513719E-2,5.6537587E-2,8.5563384E-2],"categories":[],"categories_nodes":[],"categories_segments":[],"categories_sizes":[],"default_left":[0,0,0,0,0,0,0,0,0,0,0,0,0,0,0,0,0,0,0,0,0,0,0,0,0,0,0,0,0,0,0,0,0,0,0,0,0,0,0,0,0,0,0,0,0,0,0,0,0,0,0,0,0,0,0,0,0,0,0],"id":23,"left_children":[1,3,5,7,9,11,13,15,17,19,21,23,25,27,29,31,33,35,37,39,41,43,45,47,-1,49,51,53,55,57,-1,-1,-1,-1,-1,-1,-1,-1,-1,-1,-1,-1,-1,-1,-1,-1,-1,-1,-1,-1,-1,-1,-1,-1,-1,-1,-1,-1,-1],"loss_changes":[4.5157324E2,6.733075E1,5.0756805E1,1.4225271E1,3.725482E1,1.4207886E1,1.1630112E1,4.14026E0,5.4305067E0,1.6401245E1,1.7221077E1,9.7049904E-1,1.3039646E1,5.3090515E0,1.8657837E0,1.7133021E-1,2.4426155E0,1.1766872E0,2.8445666E0,1.4808716E1,2.877304E0,6.0587234E0,6.5488663E0,1.6997955E0,0E0,2.8743253E0,6.7042007E0,7.550278E-1,9.368683E0,5.4213715E-1,0E0,0E0,0E0,0E0,0E0,0E0,0E0,0E0,0E0,0E0,0E0,0E0,0E0,0E0,0E0,0E0,0E0,0E0,0E0,0E0,0E0,0E0,0E0,0E0,0E0,0E0,0E0,0E0,0E0],"parents":[2147483647,0,0,1,1,2,2,3,3,4,4,5,5,6,6,7,7,8,8,9,9,10,10,11,11,12,12,13,13,14,14,15,15,16,16,17,17,18,18,19,19,20,20,21,21,22,22,23,23,25,25,26,26,27,27,28,28,29,29],"right_children":[2,4,6,8,10,12,14,16,18,20,22,24,26,28,30,32,34,36,38,40,42,44,46,48,-1,50,52,54,56,58,-1,-1,-1,-1,-1,-1,-1,-1,-1,-1,-1,-1,-1,-1,-1,-1,-1,-1,-1,-1,-1,-1,-1,-1,-1,-1,-1,-1,-1],"split_conditions":[1.1717442E-1,1.4459229E-1,3.732294E-2,9.245041E-4,3.980011E-2,9.469223E-2,1.9828724E1,1.1367035E-1,1.2495041E-1,2.3672867E-1,8.7937585E-4,1.3839665E1,1.9883136E-3,2.3660545E1,5.2171904E-1,1.1044474E1,6.600725E-2,3.6662593E-3,1.5870181E1,3.2497075E-5,1.1423018E1,1.7823792E-1,1.728117E1,3.9919453E1,6.4522766E-2,6.382326E-1,1.7823792E-1,1.1396408E-1,1.1723303E1,4.932752E1,2.3621125E-2,7.802675E-3,3.144575E-2,-2.6913062E-2,3.6639077E-4,5.4344814E-2,2.7756913E-2,1.35229025E-2,-1.52092865E-2,-5.3152204E-2,-2.6085189E-2,-5.811882E-2,-4.1140866E-2,-5.4738432E-2,5.3869316E-4,-4.198484E-3,-3.228527E-2,4.193246E-2,-1.5890706E-2,2.1239768E-3,-2.4623645E-2,2.0730304E-2,-3.53876E-3,5.253748E-2,4.05286E-2,-4.4379532E-2,3.513719E-2,5.6537587E-2,8.5563384E-2],"split_indices":[3,1,4,4,3,1,8,1,1,1,4,8,4,6,3,8,3,4,8,4,8,1,8,5,0,2,1,1,8,5,0,0,0,0,0,0,0,0,0,0,0,0,0,0,0,0,0,0,0,0,0,0,0,0,0,0,0,0,0],"split_type":[0,0,0,0,0,0,0,0,0,0,0,0,0,0,0,0,0,0,0,0,0,0,0,0,0,0,0,0,0,0,0,0,0,0,0,0,0,0,0,0,0,0,0,0,0,0,0,0,0,0,0,0,0,0,0,0,0,0,0],"sum_hessian":[1.885E3,1.041E3,8.44E2,1.6E2,8.81E2,5.62E2,2.82E2,4.7E1,1.13E2,6.08E2,2.73E2,2.3E1,5.39E2,2.47E2,3.5E1,5E0,4.2E1,3.6E1,7.7E1,4.76E2,1.32E2,3.3E1,2.4E2,7E0,1.6E1,3.9E1,5E2,1.22E2,1.25E2,3.2E1,3E0,2E0,3E0,3.1E1,1.1E1,6E0,3E1,6.8E1,9E0,5.8E1,4.18E2,6.3E1,6.9E1,2.7E1,6E0,2.18E2,2.2E1,6E0,1E0,2.1E1,1.8E1,4.7E2,3E1,7.6E1,4.6E1,3E0,1.22E2,1.3E1,1.9E1],"tree_param":{"num_deleted":"0","num_feature":"10","num_nodes":"59","size_leaf_vector":"1"}},{"base_weights":[4.5677708E-3,-5.031258E-1,4.7501874E-1,-6.4308494E-1,-1.4628778E-1,2.3293926E-1,7.374651E-1,-7.634239E-1,-4.2753676E-1,-5.759569E-1,-4.5947667E-2,6.4547226E-2,3.8279977E-1,8.822794E-1,4.5680374E-1,-1.0831476E0,-6.794719E-1,-5.275626E-1,-6.9224365E-2,2.728952E-1,-6.593274E-1,3.866196E-2,-8.389808E-1,-8.894908E-3,4.5325154E-1,3.20342E-1,9.044808E-1,8.03989E-1,1.427626E0,-2.4208084E-2,5.7724583E-1,-4.6914015E-2,-6.1691087E-2,-2.9292528E-2,-4.7944114E-2,-1.8426808E-2,-3.4662195E-2,3.4368744E-3,-1.6681885E-2,-1.331454E-2,2.371322E-2,-3.837986E-2,-3.808187E-3,4.296931E-2,3.4416077E-4,-4.6834093E-2,1.3442835E-3,7.9498504E-4,-4.9449127E-2,3.015694E-2,1.5257803E-3,2.7236385E-2,9.224035E-3,2.4610406E-2,5.9146117E-2,4.500189E-2,2.6936239E-2,1.75416E-2,7.395667E-2,2.624167E-2,-9.610642E-3,1.8304976E-2,4.0898733E-2],"categories":[],"categories_nodes":[],"categories_segments":[],"categories_sizes":[],"default_left":[0,0,0,0,0,0,0,0,0,0,0,0,0,0,0,0,0,0,0,0,0,0,0,0,0,0,0,0,0,0,0,0,0,0,0,0,0,0,0,0,0,0,0,0,0,0,0,0,0,0,0,0,0,0,0,0,0,0,0,0,0,0,0],"id":24,"left_children":[1,3,5,7,9,11,13,15,17,19,21,23,25,27,29,31,33,35,37,39,41,43,45,47,49,51,53,55,57,59,61,-1,-1,-1,-1,-1,-1,-1,-1,-1,-1,-1,-1,-1,-1,-1,-1,-1,-1,-1,-1,-1,-1,-1,-1,-1,-1,-1,-1,-1,-1,-1,-1],"loss_changes":[4.4544592E2,4.4704575E1,6.132805E1,1.6378235E1,1.092425E1,1.2719128E1,1.8455643E1,1.0322708E1,8.314316E0,3.576851E0,1.3921771E1,6.8268304E0,8.409927E0,1.1874329E1,9.283428E0,6.7585754E-1,8.044479E0,4.539791E0,1.9198391E0,6.6916955E-1,2.719654E0,4.897423E0,1.717104E0,4.9245043E0,2.3893785E0,7.2159843E0,2.6319847E0,6.3687744E0,1.5331955E0,3.1448517E0,6.20665E0,0E0,0E0,0E0,0E0,0E0,0E0,0E0,0E0,0E0,0E0,0E0,0E0,0E0,0E0,0E0,0E0,0E0,0E0,0E0,0E0,0E0,0E0,0E0,0E0,0E0,0E0,0E0,0E0,0E0,0E0,0E0,0E0],"parents":[2147483647,0,0,1,1,2,2,3,3,4,4,5,5,6,6,7,7,8,8,9,9,10,10,11,11,12,12,13,13,14,14,15,15,16,16,17,17,18,18,19,19,20,20,21,21,22,22,23,23,24,24,25,25,26,26,27,27,28,28,29,29,30,30],"right_children":[2,4,6,8,10,12,14,16,18,20,22,24,26,28,30,32,34,36,38,40,42,44,46,48,50,52,54,56,58,60,62,-1,-1,-1,-1,-1,-1,-1,-1,-1,-1,-1,-1,-1,-1,-1,-1,-1,-1,-1,-1,-1,-1,-1,-1,-1,-1,-1,-1,-1,-1,-1,-1],"split_conditions":[-8.910361E0,4.3375866E1,1.6774332E-2,-1.0586027E1,2.8616201E1,-6.66155E0,2.5166466E1,3.392953E1,2.7376085E1,4.3627834E1,2.2453308E-1,3.1074516E1,5.383747E1,1.9738651E1,1.4121477E1,2.5005245E1,2.3672867E-1,1.2948526E1,4.0699715E1,2.7507868E1,4.7186613E0,1.23867035E-1,-9.911739E0,2.2164713E1,5.473824E1,1.23867035E-1,1.5808813E1,1.2887573E-1,3.382711E0,2.0142531E-2,5.557873E0,-4.6914015E-2,-6.1691087E-2,-2.9292528E-2,-4.7944114E-2,-1.8426808E-2,-3.4662195E-2,3.4368744E-3,-1.6681885E-2,-1.331454E-2,2.371322E-2,-3.837986E-2,-3.808187E-3,4.296931E-2,3.4416077E-4,-4.6834093E-2,1.3442835E-3,7.9498504E-4,-4.9449127E-2,3.015694E-2,1.5257803E-3,2.7236385E-2,9.224035E-3,2.4610406E-2,5.9146117E-2,4.500189E-2,2.6936239E-2,1.75416E-2,7.395667E-2,2.624167E-2,-9.610642E-3,1.8304976E-2,4.0898733E-2],"split_indices":[0,5,4,0,6,0,6,5,6,5,1,6,5,8,8,6,1,8,5,6,7,1,0,8,5,1,8,1,7,4,7,0,0,0,0,0,0,0,0,0,0,0,0,0,0,0,0,0,0,0,0,0,0,0,0,0,0,0,0,0,0,0,0],"split_type":[0,0,0,0,0,0,0,0,0,0,0,0,0,0,0,0,0,0,0,0,0,0,0,0,0,0,0,0,0,0,0,0,0,0,0,0,0,0,0,0,0,0,0,0,0,0,0,0,0,0,0,0,0,0,0,0,0,0,0,0,0,0,0],"sum_hessian":[1.863E3,8.96E2,9.67E2,6.43E2,2.53E2,5.04E2,4.63E2,4.11E2,2.32E2,4.7E1,2.06E2,2.38E2,2.66E2,3.04E2,1.59E2,8.3E1,3.28E2,1.81E2,5.1E1,4E0,4.3E1,1.87E2,1.9E1,2.01E2,3.7E1,2.39E2,2.7E1,2.68E2,3.6E1,3.2E1,1.27E2,4.6E1,3.7E1,2.48E2,8E1,9.4E1,8.7E1,3.4E1,1.7E1,1E0,3E0,3.6E1,7E0,6E0,1.81E2,1.7E1,2E0,1.97E2,4E0,2.7E1,1E1,8.9E1,1.5E2,1.2E1,1.5E1,1.95E2,7.3E1,2E0,3.4E1,7E0,2.5E1,6.9E1,5.8E1],"tree_param":{"num_deleted":"0","num_feature":"10","num_nodes":"63","size_leaf_vector":"1"}},{"base_weights":[2.2373074E-3,-4.0514025E-1,5.689534E-1,-6.135513E-1,-1.8825997E-1,4.369619E-1,8.573518E-1,-7.2456646E-1,-3.3871958E-1,1.725034E-1,-3.0306908E-1,1.1177619E0,4.0063262E-1,7.574398E-1,1.1495844E0,-2.0461477E-1,-7.458089E-1,-4.17269E-1,3.604264E-1,-4.0041497E-1,2.1804996E-1,-4.3728113E-1,-3.966962E-3,1.1402774E0,1.33089665E-2,3.295074E-1,7.444319E-1,8.7288976E-1,5.773368E-1,9.291061E-1,8.327904E-2,-9.6920645E-4,-4.0088415E-2,-5.1919796E-2,-3.3666298E-2,-3.467112E-2,-1.198542E-2,2.7282028E-2,4.192771E-3,-5.1378388E-2,-1.0827857E-2,1.8635172E-2,3.834843E-3,-4.198287E-2,-1.885542E-2,6.6787913E-3,-4.2596355E-2,6.346976E-2,4.0337466E-2,2.0576006E-2,4.8922333E-3,4.4171426E-2,1.1383604E-2,5.3724833E-2,3.4335922E-2,1.1278544E-2,3.889171E-2,4.921857E-2,-8.636538E-3],"categories":[],"categories_nodes":[],"categories_segments":[],"categories_sizes":[],"default_left":[0,0,0,0,0,0,0,0,0,0,0,0,0,0,0,0,0,0,0,0,0,0,0,0,0,0,0,0,0,0,0,0,0,0,0,0,0,0,0,0,0,0,0,0,0,0,0,0,0,0,0,0,0,0,0,0,0,0,0],"id":25,"left_children":[1,3,5,7,9,11,13,15,17,19,21,23,25,27,29,31,33,35,37,39,41,43,45,47,-1,49,51,53,55,57,-1,-1,-1,-1,-1,-1,-1,-1,-1,-1,-1,-1,-1,-1,-1,-1,-1,-1,-1,-1,-1,-1,-1,-1,-1,-1,-1,-1,-1],"loss_changes":[4.3610815E2,4.955957E1,2.9697601E1,1.6840439E1,2.2418503E1,1.300692E1,6.3410645E0,4.243347E0,9.101946E0,3.505685E0,1.6456936E1,2.1417618E-1,1.2421257E1,3.3843155E0,5.3922195E0,1.8648478E0,7.4020996E0,7.041771E0,8.2506776E-1,9.3054235E-1,2.6384263E0,6.5353737E0,1.504254E1,9.55925E-2,0E0,8.14843E0,6.1197205E0,3.4658585E0,5.184683E0,2.9102325E0,0E0,0E0,0E0,0E0,0E0,0E0,0E0,0E0,0E0,0E0,0E0,0E0,0E0,0E0,0E0,0E0,0E0,0E0,0E0,0E0,0E0,0E0,0E0,0E0,0E0,0E0,0E0,0E0,0E0],"parents":[2147483647,0,0,1,1,2,2,3,3,4,4,5,5,6,6,7,7,8,8,9,9,10,10,11,11,12,12,13,13,14,14,15,15,16,16,17,17,18,18,19,19,20,20,21,21,22,22,23,23,25,25,26,26,27,27,28,28,29,29],"right_children":[2,4,6,8,10,12,14,16,18,20,22,24,26,28,30,32,34,36,38,40,42,44,46,48,-1,50,52,54,56,58,-1,-1,-1,-1,-1,-1,-1,-1,-1,-1,-1,-1,-1,-1,-1,-1,-1,-1,-1,-1,-1,-1,-1,-1,-1,-1,-1,-1,-1],"split_conditions":[-7.3876076E0,3.6503677E0,4.8379883E-2,3.2671264E-3,1.4300156E-1,9.469223E-2,1.6428381E-1,1.3250351E-1,4.398752E1,-1.1080624E1,3.0554064E1,6.2552404E-1,5.232163E1,2.4302553E1,1.2358856E-1,2.794388E1,3.2497075E-5,-1.0636072E1,1.6137314E-1,-1.3656724E1,1.2701797E-1,5.694761E-4,2.2341919E-1,9.072113E-2,1.33089665E-2,2.6368982E1,2.9657593E1,1.1471939E-1,4.461027E1,5.6257045E-1,8.327904E-2,-9.6920645E-4,-4.0088415E-2,-5.1919796E-2,-3.3666298E-2,-3.467112E-2,-1.198542E-2,2.7282028E-2,4.192771E-3,-5.1378388E-2,-1.0827857E-2,1.8635172E-2,3.834843E-3,-4.198287E-2,-1.885542E-2,6.6787913E-3,-4.2596355E-2,6.346976E-2,4.0337466E-2,2.0576006E-2,4.8922333E-3,4.4171426E-2,1.1383604E-2,5.3724833E-2,3.4335922E-2,1.1278544E-2,3.889171E-2,4.921857E-2,-8.636538E-3],"split_indices":[0,7,4,4,1,1,4,1,5,0,6,0,5,6,1,6,4,0,1,0,1,4,1,1,0,6,6,1,5,3,0,0,0,0,0,0,0,0,0,0,0,0,0,0,0,0,0,0,0,0,0,0,0,0,0,0,0,0,0],"split_type":[0,0,0,0,0,0,0,0,0,0,0,0,0,0,0,0,0,0,0,0,0,0,0,0,0,0,0,0,0,0,0,0,0,0,0,0,0,0,0,0,0,0,0,0,0,0,0,0,0,0,0,0,0,0,0,0,0,0,0],"sum_hessian":[1.887E3,1.098E3,7.89E2,5.59E2,5.39E2,5.43E2,2.46E2,3.97E2,1.62E2,1.3E2,4.09E2,2.6E1,5.17E2,1.86E2,6E1,1.6E1,3.81E2,1.46E2,1.6E1,9E0,1.21E2,2.82E2,1.27E2,2.5E1,1E0,4.3E2,8.7E1,1.11E2,7.5E1,4.4E1,1.6E1,1.3E1,3E0,7.3E1,3.08E2,5.6E1,9E1,9E0,7E0,1E0,8E0,5.7E1,6.4E1,3.5E1,2.47E2,1.1E2,1.7E1,1.6E1,9E0,3.17E2,1.13E2,6.8E1,1.9E1,5.1E1,6E1,2.8E1,4.7E1,4.2E1,2E0],"tree_param":{"num_deleted":"0","num_feature":"10","num_nodes":"59","size_leaf_vector":"1"}},{"base_weights":[5.996565E-3,-4.54475E-1,4.384667E-1,-3.5104007E-1,-7.5956506E-1,2.1773897E-1,6.750358E-1,-5.7272243E-1,-1.3094255E-1,-9.1378266E-1,-3.6352175E-1,5.212111E-1,1.5355277E-1,5.499124E-1,9.660207E-1,-8.1676495E-1,-4.3025342E-1,-6.207883E-1,-7.94572E-2,-1.0597456E0,-7.3467016E-1,-5.640907E-1,-1.1072158E-1,-1.4570248E-1,5.470719E-1,3.5814833E-2,2.6884258E-1,9.303778E-1,4.3946406E-1,1.3250556E0,8.0961853E-1,-4.5343093E-3,-4.512648E-2,-2.5157792E-2,-1.1095184E-2,7.374751E-3,-4.209037E-2,-1.55211305E-2,9.642406E-4,-5.5130165E-2,-2.8289964E-2,5.654403E-3,-3.9166927E-2,-3.315131E-2,9.095721E-3,5.926415E-3,-1.3506986E-2,9.222332E-3,-2.8403748E-2,1.3079834E-2,3.0309865E-2,-7.417571E-4,1.9953102E-2,8.77986E-3,2.1879992E-2,1.8866314E-2,5.1196136E-2,2.050986E-2,7.046927E-2,7.351732E-2,2.8004935E-2,3.0504359E-2,5.2532252E-2],"categories":[],"categories_nodes":[],"categories_segments":[],"categories_sizes":[],"default_left":[0,0,0,0,0,0,0,0,0,0,0,0,0,0,0,0,0,0,0,0,0,0,0,0,0,0,0,0,0,0,0,0,0,0,0,0,0,0,0,0,0,0,0,0,0,0,0,0,0,0,0,0,0,0,0,0,0,0,0,0,0,0,0],"id":26,"left_children":[1,3,5,7,9,11,13,15,17,19,21,23,25,27,29,31,33,35,37,39,41,43,45,47,49,51,53,55,57,59,61,-1,-1,-1,-1,-1,-1,-1,-1,-1,-1,-1,-1,-1,-1,-1,-1,-1,-1,-1,-1,-1,-1,-1,-1,-1,-1,-1,-1,-1,-1,-1,-1],"loss_changes":[3.684095E2,2.8008408E1,4.9668365E1,3.266426E1,1.3471176E1,9.561935E0,1.6216934E1,1.1261269E1,8.474995E0,3.4567413E0,3.2332945E0,1.5629444E0,5.555704E0,1.3206184E1,6.620285E0,7.515312E0,3.1236458E0,5.557931E0,7.007424E0,1.2178879E0,3.2242737E0,2.7776432E0,1.1284169E0,6.6256315E-1,1.242363E0,3.7592065E0,3.1804762E0,3.338581E0,6.603672E0,3.622116E0,4.0720596E0,0E0,0E0,0E0,0E0,0E0,0E0,0E0,0E0,0E0,0E0,0E0,0E0,0E0,0E0,0E0,0E0,0E0,0E0,0E0,0E0,0E0,0E0,0E0,0E0,0E0,0E0,0E0,0E0,0E0,0E0,0E0,0E0],"parents":[2147483647,0,0,1,1,2,2,3,3,4,4,5,5,6,6,7,7,8,8,9,9,10,10,11,11,12,12,13,13,14,14,15,15,16,16,17,17,18,18,19,19,20,20,21,21,22,22,23,23,24,24,25,25,26,26,27,27,28,28,29,29,30,30],"right_children":[2,4,6,8,10,12,14,16,18,20,22,24,26,28,30,32,34,36,38,40,42,44,46,48,50,52,54,56,58,60,62,-1,-1,-1,-1,-1,-1,-1,-1,-1,-1,-1,-1,-1,-1,-1,-1,-1,-1,-1,-1,-1,-1,-1,-1,-1,-1,-1,-1,-1,-1,-1,-1],"split_conditions":[-8.910361E0,2.2283936E-1,1.6774332E-2,2.7507868E1,-1.1361609E1,1.1603165E-1,1.7538994E1,6.1723906E-1,1.8704074E-4,1.1603712E1,7.454762E-1,6.258163E-4,-6.66155E0,9.788895E-2,2.2108587E1,1.4133835E-1,-9.846673E0,1.2495041E-1,1.2099436E1,3.7780355E-3,2.4653673E1,4.212053E-2,7.7659774E-1,-6.3970313E0,-7.350454E0,3.131329E1,8.3822105E-3,1.2064519E1,2.3348404E-1,4.3212244E-1,7.271268E-2,-4.5343093E-3,-4.512648E-2,-2.5157792E-2,-1.1095184E-2,7.374751E-3,-4.209037E-2,-1.55211305E-2,9.642406E-4,-5.5130165E-2,-2.8289964E-2,5.654403E-3,-3.9166927E-2,-3.315131E-2,9.095721E-3,5.926415E-3,-1.3506986E-2,9.222332E-3,-2.8403748E-2,1.3079834E-2,3.0309865E-2,-7.417571E-4,1.9953102E-2,8.77986E-3,2.1879992E-2,1.8866314E-2,5.1196136E-2,2.050986E-2,7.046927E-2,7.351732E-2,2.8004935E-2,3.0504359E-2,5.2532252E-2],"split_indices":[0,1,4,6,0,1,8,2,4,8,2,4,0,1,6,1,0,1,8,4,6,3,2,0,0,6,4,8,4,3,4,0,0,0,0,0,0,0,0,0,0,0,0,0,0,0,0,0,0,0,0,0,0,0,0,0,0,0,0,0,0,0,0],"split_type":[0,0,0,0,0,0,0,0,0,0,0,0,0,0,0,0,0,0,0,0,0,0,0,0,0,0,0,0,0,0,0,0,0,0,0,0,0,0,0,0,0,0,0,0,0,0,0,0,0,0,0,0,0,0,0,0,0,0,0,0,0,0,0],"sum_hessian":[1.848E3,8.95E2,9.53E2,6.7E2,2.25E2,4.94E2,4.59E2,3.33E2,3.37E2,1.61E2,6.4E1,8.5E1,4.09E2,3.23E2,1.36E2,1.21E2,2.12E2,3.1E1,3.06E2,8.6E1,7.5E1,3.5E1,2.9E1,3E0,8.2E1,2.03E2,2.06E2,7.1E1,2.52E2,3.9E1,9.7E1,1.3E1,1.08E2,1.56E2,5.6E1,7E0,2.4E1,9.1E1,2.15E2,7.8E1,8E0,4E0,7.1E1,3.1E1,4E0,1.2E1,1.7E1,2E0,1E0,1.5E1,6.7E1,1.79E2,2.4E1,1.34E2,7.2E1,1.1E1,6E1,2.46E2,6E0,